{"learner":{"attributes":{"scikit_learn":"{\"_estimator_type\": \"classifier\"}"},"feature_names":["Gender","Age","Under 30","Senior Citizen","Married","Dependents","Number of Dependents","Population","Referred a Friend","Number of Referrals","Tenure in Months","Phone Service","Avg Monthly Long Distance Charges","Multiple Lines","Internet Service","Avg Monthly GB Download","Online Security","Online Backup","Device Protection Plan","Premium Tech Support","Streaming TV","Streaming Movies","Streaming Music","Unlimited Data","Paperless Billing","Monthly Charge","Total Charges","Total Refunds","Total Extra Data Charges","Total Long Distance Charges","Total Revenue","Offer_Offer A","Offer_Offer B","Offer_Offer C","Offer_Offer D","Offer_Offer E","Internet Type_DSL","Internet Type_Fiber Optic","Internet Type_None","Contract_One Year","Contract_Two Year","Payment Method_Credit Card","Payment Method_Mailed Check"],"feature_types":["int","int","int","int","int","int","int","int","int","int","int","int","float","int","int","int","int","int","int","int","int","int","int","int","int","float","float","float","int","float","float","int","int","int","int","int","int","int","int","int","int","int","int"],"gradient_booster":{"model":{"cats":{"enc":[],"feature_segments":[],"sorted_idx":[]},"gbtree_model_param":{"num_parallel_tree":"1","num_trees":"300"},"iteration_indptr":[0,1,2,3,4,5,6,7,8,9,10,11,12,13,14,15,16,17,18,19,20,21,22,23,24,25,26,27,28,29,30,31,32,33,34,35,36,37,38,39,40,41,42,43,44,45,46,47,48,49,50,51,52,53,54,55,56,57,58,59,60,61,62,63,64,65,66,67,68,69,70,71,72,73,74,75,76,77,78,79,80,81,82,83,84,85,86,87,88,89,90,91,92,93,94,95,96,97,98,99,100,101,102,103,104,105,106,107,108,109,110,111,112,113,114,115,116,117,118,119,120,121,122,123,124,125,126,127,128,129,130,131,132,133,134,135,136,137,138,139,140,141,142,143,144,145,146,147,148,149,150,151,152,153,154,155,156,157,158,159,160,161,162,163,164,165,166,167,168,169,170,171,172,173,174,175,176,177,178,179,180,181,182,183,184,185,186,187,188,189,190,191,192,193,194,195,196,197,198,199,200,201,202,203,204,205,206,207,208,209,210,211,212,213,214,215,216,217,218,219,220,221,222,223,224,225,226,227,228,229,230,231,232,233,234,235,236,237,238,239,240,241,242,243,244,245,246,247,248,249,250,251,252,253,254,255,256,257,258,259,260,261,262,263,264,265,266,267,268,269,270,271,272,273,274,275,276,277,278,279,280,281,282,283,284,285,286,287,288,289,290,291,292,293,294,295,296,297,298,299,300],"tree_info":[0,0,0,0,0,0,0,0,0,0,0,0,0,0,0,0,0,0,0,0,0,0,0,0,0,0,0,0,0,0,0,0,0,0,0,0,0,0,0,0,0,0,0,0,0,0,0,0,0,0,0,0,0,0,0,0,0,0,0,0,0,0,0,0,0,0,0,0,0,0,0,0,0,0,0,0,0,0,0,0,0,0,0,0,0,0,0,0,0,0,0,0,0,0,0,0,0,0,0,0,0,0,0,0,0,0,0,0,0,0,0,0,0,0,0,0,0,0,0,0,0,0,0,0,0,0,0,0,0,0,0,0,0,0,0,0,0,0,0,0,0,0,0,0,0,0,0,0,0,0,0,0,0,0,0,0,0,0,0,0,0,0,0,0,0,0,0,0,0,0,0,0,0,0,0,0,0,0,0,0,0,0,0,0,0,0,0,0,0,0,0,0,0,0,0,0,0,0,0,0,0,0,0,0,0,0,0,0,0,0,0,0,0,0,0,0,0,0,0,0,0,0,0,0,0,0,0,0,0,0,0,0,0,0,0,0,0,0,0,0,0,0,0,0,0,0,0,0,0,0,0,0,0,0,0,0,0,0,0,0,0,0,0,0,0,0,0,0,0,0,0,0,0,0,0,0,0,0,0,0,0,0,0,0,0,0,0,0,0,0,0,0,0,0,0,0,0,0,0,0],"trees":[{"base_weights":[5.0316807E-8,4.5336285E-1,-1.2222625E0,1.004866E0,-8.30236E-1,-1.2889161E0,-9.968335E-1,6.896772E-1,2.7456098E0,-1.1199572E0,-4.647472E-1,-1.2929224E0,-1.8131554E-2,-7.313859E-1,-1.2195319E0,1.000079E0,-7.217688E-1,3.0259275E0,4.116037E-1,-1.1460234E0,2.4429189E-1,5.3054802E-2,-5.7977032E-2,-6.57735E-2,-1.0151774E0,-1.360229E-1,-9.834685E-1,-5.4518616E-1,-1.264403E0,1.7513968E-2,8.495239E-2,-1.39243575E-2,-5.831772E-2,1.5817611E-1,7.68135E-2,5.456669E-2,-2.5250679E-2,-4.582549E-2,-6.0098972E-2,-1.3645532E-2,3.2444954E-2,-1.8476786E-2,4.457147E-2,-5.4726392E-2,9.399711E-3,-2.4409242E-2,4.8994467E-2,-5.7433642E-2,-3.1133104E-2,9.399711E-3,-4.4984136E-2,-6.447913E-2,-2.5198674E-2],"categories":[],"categories_nodes":[],"categories_segments":[],"categories_sizes":[],"default_left":[0,0,0,0,0,0,0,0,0,0,0,0,0,0,0,0,0,0,0,0,0,0,0,0,0,0,0,0,0,0,0,0,0,0,0,0,0,0,0,0,0,0,0,0,0,0,0,0,0,0,0,0,0],"id":0,"left_children":[1,3,5,7,9,11,13,15,17,19,21,23,-1,25,27,29,31,33,35,37,39,41,-1,-1,43,45,47,49,51,-1,-1,-1,-1,-1,-1,-1,-1,-1,-1,-1,-1,-1,-1,-1,-1,-1,-1,-1,-1,-1,-1,-1,-1],"loss_changes":[6.0970575E2,5.689997E2,3.1882935E0,3.0636987E2,2.5078583E1,3.7112427E-1,3.3849106E0,2.0972289E2,5.488983E1,5.0502625E0,3.9134693E1,7.3516846E-2,0E0,5.194769E0,4.5575714E-1,1.7720493E2,1.6737892E1,1.0808228E1,7.0041914E0,5.91095E-1,8.7588423E-1,2.2715582E1,0E0,0E0,2.2368279E0,5.0848017E0,7.619877E-1,1.2397178E0,1.4972687E-2,0E0,0E0,0E0,0E0,0E0,0E0,0E0,0E0,0E0,0E0,0E0,0E0,0E0,0E0,0E0,0E0,0E0,0E0,0E0,0E0,0E0,0E0,0E0,0E0],"parents":[2147483647,0,0,1,1,2,2,3,3,4,4,5,5,6,6,7,7,8,8,9,9,10,10,11,11,13,13,14,14,15,15,16,16,17,17,18,18,19,19,20,20,21,21,24,24,25,25,26,26,27,27,28,28],"right_children":[2,4,6,8,10,12,14,16,18,20,22,24,-1,26,28,30,32,34,36,38,40,42,-1,-1,44,46,48,50,52,-1,-1,-1,-1,-1,-1,-1,-1,-1,-1,-1,-1,-1,-1,-1,-1,-1,-1,-1,-1,-1,-1,-1,-1],"split_conditions":[1E0,1E0,9.195E1,6.5E1,1E0,8E1,2E0,2E0,3E0,1E0,2E0,5.3323E4,-1.8131554E-2,4E1,9.43E1,1E0,1E0,5E1,7E0,1.6448E2,1E0,1E0,-5.7977032E-2,-6.57735E-2,6E1,3.8E1,1E0,3.499E3,4.731E1,1.7513968E-2,8.495239E-2,-1.39243575E-2,-5.831772E-2,1.5817611E-1,7.68135E-2,5.456669E-2,-2.5250679E-2,-4.582549E-2,-6.0098972E-2,-1.3645532E-2,3.2444954E-2,-1.8476786E-2,4.457147E-2,-5.4726392E-2,9.399711E-3,-2.4409242E-2,4.8994467E-2,-5.7433642E-2,-3.1133104E-2,9.399711E-3,-4.4984136E-2,-6.447913E-2,-2.5198674E-2],"split_indices":[40,39,25,1,21,1,9,9,9,22,9,7,0,1,25,37,5,10,9,29,0,8,0,0,28,1,4,7,12,0,0,0,0,0,0,0,0,0,0,0,0,0,0,0,0,0,0,0,0,0,0,0,0],"split_type":[0,0,0,0,0,0,0,0,0,0,0,0,0,0,0,0,0,0,0,0,0,0,0,0,0,0,0,0,0,0,0,0,0,0,0,0,0,0,0,0,0,0,0,0,0,0,0,0,0,0,0,0,0],"sum_hessian":[1.0982969E3,8.015969E2,2.967E2,5.608449E2,2.4075198E2,2.2535165E2,7.1348366E1,4.7604562E2,8.4799286E1,1.3314462E2,1.0760737E2,2.2398708E2,1.3645861E0,3.4504536E1,3.6843826E1,3.9046658E2,8.557905E1,7.544212E1,9.357162E0,1.3080533E2,2.3392906E0,6.2186142E1,4.5421227E1,2.0371323E2,2.0273851E1,1.0721748E1,2.3782787E1,3.119054E0,3.3724773E1,2.031284E2,1.8733818E2,4.3666756E1,4.191229E1,6.803437E1,7.4077535E0,5.263404E0,4.0937586E0,2.904619E1,1.0175914E2,1.1696453E0,1.1696453E0,4.171735E1,2.0468792E1,1.9104206E1,1.1696453E0,8.577398E0,2.1443496E0,1.4815507E1,8.96728E0,1.1696453E0,1.9494088E0,3.1970304E1,1.754468E0],"tree_param":{"num_deleted":"0","num_feature":"43","num_nodes":"53","size_leaf_vector":"1"}},{"base_weights":[-1.2130595E-3,4.2548314E-1,-1.1972235E0,9.325548E-1,-8.055142E-1,-1.264331E0,-9.7204113E-1,6.442811E-1,2.4570627E0,-9.644713E-1,-1.6038515E-1,-1.2683547E0,-1.7697787E-2,-7.0874166E-1,-1.19542E0,9.281453E-1,-6.985805E-1,2.691478E0,3.90253E-1,-8.473335E-1,-6.575536E-2,4.9355978E-1,-1.1212549E0,-6.455638E-2,-9.899888E-1,-1.2787294E-1,-9.5911855E-1,-5.314838E-1,-1.2403482E0,1.4378697E-2,7.598602E-2,-1.3331326E-2,-5.7048876E-2,1.3755694E-1,3.2452326E-2,5.1155556E-2,-2.4476161E-2,-5.0285455E-2,-2.3033429E-2,-1.5198448E-3,6.751121E-2,-2.3584707E-2,-6.0126353E-2,-5.3476937E-2,9.124126E-3,-2.356528E-2,4.6581194E-2,-1.8106468E-2,-5.1997155E-2,-4.455013E-2,1.0184657E-2,-6.3295186E-2,-2.4167536E-2],"categories":[],"categories_nodes":[],"categories_segments":[],"categories_sizes":[],"default_left":[0,0,0,0,0,0,0,0,0,0,0,0,0,0,0,0,0,0,0,0,0,0,0,0,0,0,0,0,0,0,0,0,0,0,0,0,0,0,0,0,0,0,0,0,0,0,0,0,0,0,0,0,0],"id":1,"left_children":[1,3,5,7,9,11,13,15,17,19,21,23,-1,25,27,29,31,33,35,37,-1,39,41,-1,43,45,47,49,51,-1,-1,-1,-1,-1,-1,-1,-1,-1,-1,-1,-1,-1,-1,-1,-1,-1,-1,-1,-1,-1,-1,-1,-1],"loss_changes":[5.6131494E2,5.0678012E2,3.141571E0,2.509534E2,2.4154022E1,3.5510254E-1,3.312706E0,1.85376E2,4.305011E1,6.6889343E0,3.0752556E1,1.0461426E-1,0E0,4.9559536E0,4.3876648E-1,1.5132053E2,1.5964615E1,8.1553955E0,6.3145566E0,8.4298935E0,0E0,1.3188919E1,4.763813E-1,0E0,2.1336784E0,4.68609E0,7.933998E-1,1.2605985E0,4.0569305E-2,0E0,0E0,0E0,0E0,0E0,0E0,0E0,0E0,0E0,0E0,0E0,0E0,0E0,0E0,0E0,0E0,0E0,0E0,0E0,0E0,0E0,0E0,0E0,0E0],"parents":[2147483647,0,0,1,1,2,2,3,3,4,4,5,5,6,6,7,7,8,8,9,9,10,10,11,11,13,13,14,14,15,15,16,16,17,17,18,18,19,19,21,21,22,22,24,24,25,25,26,26,27,27,28,28],"right_children":[2,4,6,8,10,12,14,16,18,20,22,24,-1,26,28,30,32,34,36,38,-1,40,42,-1,44,46,48,50,52,-1,-1,-1,-1,-1,-1,-1,-1,-1,-1,-1,-1,-1,-1,-1,-1,-1,-1,-1,-1,-1,-1,-1,-1],"split_conditions":[1E0,1E0,9.195E1,6.5E1,9.905E1,8E1,2E0,2E0,3E0,1E0,2E0,5.3323E4,-1.7697787E-2,4E1,9.43E1,6.92E1,1E0,6E1,7E0,1E0,-6.575536E-2,1E0,3E0,-6.455638E-2,6E1,3.8E1,9.665E1,1.50876E3,3.32352E3,1.4378697E-2,7.598602E-2,-1.3331326E-2,-5.7048876E-2,1.3755694E-1,3.2452326E-2,5.1155556E-2,-2.4476161E-2,-5.0285455E-2,-2.3033429E-2,-1.5198448E-3,6.751121E-2,-2.3584707E-2,-6.0126353E-2,-5.3476937E-2,9.124126E-3,-2.356528E-2,4.6581194E-2,-1.8106468E-2,-5.1997155E-2,-4.455013E-2,1.0184657E-2,-6.3295186E-2,-2.4167536E-2],"split_indices":[40,39,25,1,25,1,9,9,9,5,9,7,0,1,25,25,5,10,9,22,0,8,9,0,28,1,25,29,29,0,0,0,0,0,0,0,0,0,0,0,0,0,0,0,0,0,0,0,0,0,0,0,0],"split_type":[0,0,0,0,0,0,0,0,0,0,0,0,0,0,0,0,0,0,0,0,0,0,0,0,0,0,0,0,0,0,0,0,0,0,0,0,0,0,0,0,0,0,0,0,0,0,0,0,0,0,0,0,0],"sum_hessian":[1.0979009E3,8.0967896E2,2.882219E2,5.736315E2,2.3604747E2,2.1849323E2,6.9728676E1,4.8360733E2,9.002413E1,1.889869E2,4.706058E1,2.1714029E2,1.3529376E0,3.3919796E1,3.5808876E1,3.9947263E2,8.4134705E1,8.058233E1,9.441802E0,1.4422263E2,4.476426E1,2.8292038E1,1.8768543E1,1.9735646E2,1.9783827E1,1.0671915E1,2.3247883E1,3.082735E0,3.272614E1,1.9250732E2,2.0696529E2,4.338071E1,4.0753998E1,7.795814E1,2.624196E0,5.3967686E0,4.045033E0,1.0117924E2,4.304339E1,1.815346E1,1.0138578E1,2.8437786E0,1.5924765E1,1.8609032E1,1.1747959E0,8.478724E0,2.1931913E0,3.425653E0,1.982223E1,1.9279608E0,1.1547743E0,3.10071E1,1.7190421E0],"tree_param":{"num_deleted":"0","num_feature":"43","num_nodes":"53","size_leaf_vector":"1"}},{"base_weights":[-2.2849008E-3,4.003013E-1,-1.1736609E0,8.688304E-1,-7.818327E-1,-1.2414132E0,-9.4820815E-1,1.1338508E0,-4.9672234E-1,-1.0698844E0,-4.2936826E-1,-1.245466E0,-1.7275106E-2,-6.866386E-1,-1.1727202E0,3.9781818E-1,1.6560038E0,-3.4850653E-2,-1.0987465E0,-1.0966407E0,2.6042426E-1,5.739747E-2,-1.1143473E0,-6.342687E-2,-9.658596E-1,-1.2021573E-1,-9.352924E-1,-5.180915E-1,-1.2178347E0,4.324245E-2,-1.5614863E-2,1.100613E-1,6.043634E-2,2.762129E-2,-3.4821536E-2,-5.703746E-2,5.4696756E-3,-4.310856E-2,-5.7724953E-2,-1.3328984E-2,3.342351E-2,-1.7051019E-2,4.07886E-2,-5.652667E-2,-1.9284427E-2,-3.3672058E-3,-5.4205608E-2,-2.7804075E-2,3.366896E-2,-5.5260092E-2,-2.859967E-2,9.892085E-3,-4.3719124E-2,-6.217418E-2,-2.3583686E-2],"categories":[],"categories_nodes":[],"categories_segments":[],"categories_sizes":[],"default_left":[0,0,0,0,0,0,0,0,0,0,0,0,0,0,0,0,0,0,0,0,0,0,0,0,0,0,0,0,0,0,0,0,0,0,0,0,0,0,0,0,0,0,0,0,0,0,0,0,0,0,0,0,0,0,0],"id":2,"left_children":[1,3,5,7,9,11,13,15,17,19,21,23,-1,25,27,29,31,33,35,37,39,41,43,-1,45,47,49,51,53,-1,-1,-1,-1,-1,-1,-1,-1,-1,-1,-1,-1,-1,-1,-1,-1,-1,-1,-1,-1,-1,-1,-1,-1,-1,-1],"loss_changes":[5.176289E2,4.5312955E2,3.1114197E0,2.124556E2,2.3135437E1,3.4176636E-1,3.2532501E0,1.8790582E2,2.6615791E1,4.8136597E0,3.5468117E1,1.3787842E-1,0E0,4.7231293E0,4.2564392E-1,6.823598E1,6.7257324E1,2.1861015E1,2.2348824E0,6.989746E-1,8.9133966E-1,1.932083E1,8.478546E-2,0E0,2.0836277E0,4.394299E0,8.314991E-1,1.205305E0,3.98674E-2,0E0,0E0,0E0,0E0,0E0,0E0,0E0,0E0,0E0,0E0,0E0,0E0,0E0,0E0,0E0,0E0,0E0,0E0,0E0,0E0,0E0,0E0,0E0,0E0,0E0,0E0],"parents":[2147483647,0,0,1,1,2,2,3,3,4,4,5,5,6,6,7,7,8,8,9,9,10,10,11,11,13,13,14,14,15,15,16,16,17,17,18,18,19,19,20,20,21,21,22,22,24,24,25,25,26,26,27,27,28,28],"right_children":[2,4,6,8,10,12,14,16,18,20,22,24,-1,26,28,30,32,34,36,38,40,42,44,-1,46,48,50,52,54,-1,-1,-1,-1,-1,-1,-1,-1,-1,-1,-1,-1,-1,-1,-1,-1,-1,-1,-1,-1,-1,-1,-1,-1,-1,-1],"split_conditions":[1E0,1E0,9.195E1,2E0,1E0,8E1,2E0,6.875E1,1E0,1E0,2E0,5.3323E4,-1.7275106E-2,4E1,9.43E1,7.884E1,1.1E1,6E0,1E0,1.6448E2,6.95E1,1E0,2.80024E3,-6.342687E-2,5.5062E4,3.4E1,1E0,3.499E3,3.32352E3,4.324245E-2,-1.5614863E-2,1.100613E-1,6.043634E-2,2.762129E-2,-3.4821536E-2,-5.703746E-2,5.4696756E-3,-4.310856E-2,-5.7724953E-2,-1.3328984E-2,3.342351E-2,-1.7051019E-2,4.07886E-2,-5.652667E-2,-1.9284427E-2,-3.3672058E-3,-5.4205608E-2,-2.7804075E-2,3.366896E-2,-5.5260092E-2,-2.859967E-2,9.892085E-3,-4.3719124E-2,-6.217418E-2,-2.3583686E-2],"split_indices":[40,39,25,9,21,1,9,25,5,22,9,7,0,1,25,29,10,9,42,29,25,8,29,0,7,1,4,7,29,0,0,0,0,0,0,0,0,0,0,0,0,0,0,0,0,0,0,0,0,0,0,0,0,0,0],"split_type":[0,0,0,0,0,0,0,0,0,0,0,0,0,0,0,0,0,0,0,0,0,0,0,0,0,0,0,0,0,0,0,0,0,0,0,0,0,0,0,0,0,0,0,0,0,0,0,0,0,0,0,0,0,0,0],"sum_hessian":[1.0956525E3,8.1589764E2,2.7975482E2,5.845007E2,2.3139699E2,2.1164537E2,6.810944E1,4.8964264E2,9.485802E1,1.2621351E2,1.0518348E2,2.1030386E2,1.3414993E0,3.3332966E1,3.477648E1,2.0393518E2,2.8570746E2,5.42757E1,4.0582314E1,1.2389723E2,2.316281E0,6.20238E1,4.315968E1,1.9100645E2,1.9297419E1,1.0621381E1,2.2711584E1,3.0470178E0,3.1729465E1,1.22892784E2,8.10424E1,1.2698896E2,1.5871849E2,2.8839882E1,2.543582E1,3.9272724E1,1.3095882E0,2.7669327E1,9.6227905E1,1.1620935E0,1.1541877E0,4.1022594E1,2.1001207E1,4.168225E1,1.4774312E0,2.426872E0,1.6870546E1,7.0490966E0,3.5722837E0,1.40830345E1,8.628549E0,1.1602745E0,1.8867433E0,3.003067E1,1.6987947E0],"tree_param":{"num_deleted":"0","num_feature":"43","num_nodes":"55","size_leaf_vector":"1"}},{"base_weights":[-3.309341E-3,3.7723452E-1,-1.1514935E0,8.1153053E-1,-7.5906783E-1,-1.219987E0,-9.2562133E-1,5.541861E-1,2.123317E0,-5.0884956E-1,-1.1642847E0,-1.2240795E0,-1.6863156E-2,-6.659492E-1,-1.1513264E0,7.9270446E-1,-6.585991E-1,2.306815E0,3.8124642E-1,-7.854749E-1,3.839359E-1,-1.1850641E0,-2.729323E-3,-1.2475065E0,-9.4292074E-1,-1.1430632E-1,-9.1268426E-1,-5.052184E-1,-1.1967118E0,5.8979403E-2,-2.514443E-4,-1.26667125E-2,-5.4708924E-2,1.1726519E-1,1.078496E-2,4.7469065E-2,-2.2556415E-2,-4.8509825E-2,-6.8583987E-3,2.8648067E-2,-5.279518E-2,-5.977493E-2,-9.705076E-3,-6.262095E-2,-2.5859196E-2,-5.1224507E-2,9.946405E-3,1.3996877E-2,-4.93447E-2,-1.6001983E-2,-4.977023E-2,-4.332634E-2,1.0634137E-2,-6.11435E-2,-2.2614164E-2],"categories":[],"categories_nodes":[],"categories_segments":[],"categories_sizes":[],"default_left":[0,0,0,0,0,0,0,0,0,0,0,0,0,0,0,0,0,0,0,0,0,0,0,0,0,0,0,0,0,0,0,0,0,0,0,0,0,0,0,0,0,0,0,0,0,0,0,0,0,0,0,0,0,0,0],"id":3,"left_children":[1,3,5,7,9,11,13,15,17,19,21,23,-1,25,27,29,31,33,35,37,39,41,-1,43,45,47,49,51,53,-1,-1,-1,-1,-1,-1,-1,-1,-1,-1,-1,-1,-1,-1,-1,-1,-1,-1,-1,-1,-1,-1,-1,-1,-1,-1],"loss_changes":[4.780786E2,4.0616898E2,3.0844727E0,1.9969904E2,2.250061E1,3.3081055E-1,3.190548E0,1.4481297E2,3.0203857E1,3.5515633E1,1.922348E0,1.7080688E-1,0E0,4.491995E0,4.1440964E-1,1.2879214E2,1.4290375E1,6.5584106E0,5.3768334E0,1.2942581E1,9.967667E0,6.4211273E-1,0E0,1.8463135E-2,2.0504017E0,4.2597265E0,8.182831E-1,1.2247901E0,6.4964294E-2,0E0,0E0,0E0,0E0,0E0,0E0,0E0,0E0,0E0,0E0,0E0,0E0,0E0,0E0,0E0,0E0,0E0,0E0,0E0,0E0,0E0,0E0,0E0,0E0,0E0,0E0],"parents":[2147483647,0,0,1,1,2,2,3,3,4,4,5,5,6,6,7,7,8,8,9,9,10,10,11,11,13,13,14,14,15,15,16,16,17,17,18,18,19,19,20,20,21,21,23,23,24,24,25,25,26,26,27,27,28,28],"right_children":[2,4,6,8,10,12,14,16,18,20,22,24,-1,26,28,30,32,34,36,38,40,42,-1,44,46,48,50,52,54,-1,-1,-1,-1,-1,-1,-1,-1,-1,-1,-1,-1,-1,-1,-1,-1,-1,-1,-1,-1,-1,-1,-1,-1,-1,-1],"split_conditions":[1E0,1E0,9.195E1,6.5E1,2E0,8E1,2E0,2E0,3E0,9.52E1,1E0,5.3323E4,-1.6863156E-2,4E1,9.43E1,1E0,1E0,6.1519E3,7E0,1E0,1E0,8E1,-2.729323E-3,1.4E2,6E1,7.2E1,9.665E1,1.50876E3,4.731E1,5.8979403E-2,-2.514443E-4,-1.26667125E-2,-5.4708924E-2,1.1726519E-1,1.078496E-2,4.7469065E-2,-2.2556415E-2,-4.8509825E-2,-6.8583987E-3,2.8648067E-2,-5.279518E-2,-5.977493E-2,-9.705076E-3,-6.262095E-2,-2.5859196E-2,-5.1224507E-2,9.946405E-3,1.3996877E-2,-4.93447E-2,-1.6001983E-2,-4.977023E-2,-4.332634E-2,1.0634137E-2,-6.11435E-2,-2.2614164E-2],"split_indices":[40,39,25,1,9,1,9,9,9,25,35,7,0,1,25,41,5,26,9,8,5,1,0,28,28,10,25,29,12,0,0,0,0,0,0,0,0,0,0,0,0,0,0,0,0,0,0,0,0,0,0,0,0,0,0],"split_type":[0,0,0,0,0,0,0,0,0,0,0,0,0,0,0,0,0,0,0,0,0,0,0,0,0,0,0,0,0,0,0,0,0,0,0,0,0,0,0,0,0,0,0,0,0,0,0,0,0,0,0,0,0,0,0],"sum_hessian":[1.0921714E3,8.208032E2,2.713682E2,5.9404456E2,2.2675867E2,2.0484868E2,6.65195E1,4.9780774E2,9.623678E1,1.4158609E2,8.5172585E1,2.035184E2,1.3302733E0,3.2769253E1,3.375025E1,4.1628363E2,8.152411E1,8.677256E1,9.46422E0,1.08185524E2,3.340057E1,8.354035E1,1.632234E0,1.8469229E2,1.882611E1,1.0579404E1,2.2189848E1,3.0114117E0,3.073884E1,2.800074E2,1.3627626E2,4.3050938E1,3.8473167E1,8.5084946E1,1.6876183E0,5.541391E0,3.9228296E0,8.380929E1,2.437623E1,3.005672E1,3.3438492E0,8.2465614E1,1.0747315E0,1.8274817E2,1.9441295E0,1.7666838E1,1.1592728E0,7.754865E0,2.824539E0,3.3142233E0,1.8875624E1,1.8655044E0,1.1459072E0,2.9074505E1,1.6643356E0],"tree_param":{"num_deleted":"0","num_feature":"43","num_nodes":"55","size_leaf_vector":"1"}},{"base_weights":[-4.229665E-3,3.561567E-1,-1.1305479E0,7.6017547E-1,-7.370338E-1,-1.199903E0,-9.040498E-1,1.788331E-1,1.2530471E0,-1.0263456E0,-3.9213642E-1,-1.2040455E0,-1.6461605E-2,-6.464004E-1,-1.131046E0,7.739286E-1,-2.3339264E-1,1.4335687E0,-4.159477E-1,-1.0539662E0,2.8266212E-1,6.145654E-2,-1.0672625E0,-1.2279149E0,-9.2048496E-1,-1.1200275E-1,-8.9041674E-1,-4.9262595E-1,-1.17681E0,6.752292E-2,2.6265911E-3,-1.7737841E-2,1.07944846E-1,9.559713E-2,4.6446297E-2,3.5880323E-2,-3.7826836E-2,-4.068979E-2,-5.5699255E-2,3.357539E-2,-1.2104604E-2,-1.5761223E-2,3.7649598E-2,-5.4198176E-2,-1.7397085E-2,-6.1643876E-2,-2.524505E-2,-1.8377466E-3,-5.2085917E-2,1.3297461E-2,-4.8426773E-2,-5.3285003E-2,-2.6203195E-2,1.0334633E-2,-4.2543087E-2,-6.0160168E-2,-2.207027E-2],"categories":[],"categories_nodes":[],"categories_segments":[],"categories_sizes":[],"default_left":[0,0,0,0,0,0,0,0,0,0,0,0,0,0,0,0,0,0,0,0,0,0,0,0,0,0,0,0,0,0,0,0,0,0,0,0,0,0,0,0,0,0,0,0,0,0,0,0,0,0,0,0,0,0,0,0,0],"id":4,"left_children":[1,3,5,7,9,11,13,15,17,19,21,23,-1,25,27,29,31,33,35,37,39,41,43,45,47,49,51,53,55,-1,-1,-1,-1,-1,-1,-1,-1,-1,-1,-1,-1,-1,-1,-1,-1,-1,-1,-1,-1,-1,-1,-1,-1,-1,-1,-1,-1],"loss_changes":[4.422188E2,3.6510117E2,3.0637817E0,1.725914E2,2.1872284E1,3.2177734E-1,3.1268616E0,6.8353004E1,9.8888916E1,4.6648026E0,3.1745872E1,2.0855713E-1,0E0,4.233513E0,4.0587997E-1,4.732418E1,4.865506E1,6.934796E1,1.3135785E1,8.015442E-1,8.3273876E-1,1.660218E1,1.2294006E-1,2.1392822E-2,2.0350475E0,4.0001297E0,8.972206E-1,1.1720567E0,6.591034E-2,0E0,0E0,0E0,0E0,0E0,0E0,0E0,0E0,0E0,0E0,0E0,0E0,0E0,0E0,0E0,0E0,0E0,0E0,0E0,0E0,0E0,0E0,0E0,0E0,0E0,0E0,0E0,0E0],"parents":[2147483647,0,0,1,1,2,2,3,3,4,4,5,5,6,6,7,7,8,8,9,9,10,10,11,11,13,13,14,14,15,15,16,16,17,17,18,18,19,19,20,20,21,21,22,22,23,23,24,24,25,25,26,26,27,27,28,28],"right_children":[2,4,6,8,10,12,14,16,18,20,22,24,-1,26,28,30,32,34,36,38,40,42,44,46,48,50,52,54,56,-1,-1,-1,-1,-1,-1,-1,-1,-1,-1,-1,-1,-1,-1,-1,-1,-1,-1,-1,-1,-1,-1,-1,-1,-1,-1,-1,-1],"split_conditions":[1E0,1E0,9.195E1,1E0,1E0,8E1,2E0,5E0,1E0,1E0,2E0,5.3323E4,-1.6461605E-2,4E1,9.43E1,1E0,8.33E1,1.5E1,1.10765E3,1.6448E2,2.7505E4,1E0,2.80024E3,1.4E2,5.5062E4,7.2E1,1E0,3.499E3,3.32352E3,6.752292E-2,2.6265911E-3,-1.7737841E-2,1.07944846E-1,9.559713E-2,4.6446297E-2,3.5880323E-2,-3.7826836E-2,-4.068979E-2,-5.5699255E-2,3.357539E-2,-1.2104604E-2,-1.5761223E-2,3.7649598E-2,-5.4198176E-2,-1.7397085E-2,-6.1643876E-2,-2.524505E-2,-1.8377466E-3,-5.2085917E-2,1.3297461E-2,-4.8426773E-2,-5.3285003E-2,-2.6203195E-2,1.0334633E-2,-4.2543087E-2,-6.0160168E-2,-2.207027E-2],"split_indices":[40,39,25,37,21,1,9,10,5,22,9,7,0,1,25,41,25,10,30,29,7,8,29,28,7,10,4,7,29,0,0,0,0,0,0,0,0,0,0,0,0,0,0,0,0,0,0,0,0,0,0,0,0,0,0,0,0],"split_type":[0,0,0,0,0,0,0,0,0,0,0,0,0,0,0,0,0,0,0,0,0,0,0,0,0,0,0,0,0,0,0,0,0,0,0,0,0,0,0,0,0,0,0,0,0,0,0,0,0,0,0,0,0,0,0,0,0],"sum_hessian":[1.0874592E3,8.243704E2,2.630888E2,6.0213824E2,2.222322E2,1.9812424E2,6.4964554E1,2.768988E2,3.2523944E2,1.1978044E2,1.0245175E2,1.9680498E2,1.3192613E0,3.2229946E1,3.2734604E1,1.1295613E2,1.6394267E2,2.936218E2,3.1617636E1,1.1749606E2,2.284378E0,6.1823643E1,4.062811E1,1.784529E2,1.8352085E1,1.0560773E1,2.1669176E1,2.9764729E0,2.9758133E1,6.229715E1,5.065898E1,1.5683777E2,7.104892E0,1.4930247E2,1.4431932E2,7.049249E0,2.4568386E1,2.6402662E1,9.10934E1,1.1514705E0,1.1329075E0,4.037529E1,2.1448349E1,3.9210796E1,1.4173114E0,1.7653601E2,1.9168786E0,2.3711054E0,1.5980979E1,7.805873E0,2.7548995E0,1.3365459E1,8.303716E0,1.1515456E0,1.8249272E0,2.811306E1,1.6450715E0],"tree_param":{"num_deleted":"0","num_feature":"43","num_nodes":"57","size_leaf_vector":"1"}},{"base_weights":[-4.9134805E-3,3.368738E-1,-1.1106999E0,7.1355206E-1,-7.15824E-1,-1.1810088E0,-8.834259E-1,4.8094064E-1,1.8720603E0,-4.7167045E-1,-1.1238688E0,-1.1852107E0,-1.6070144E-2,-6.27851E-1,-1.1118053E0,6.9364494E-1,-6.453024E-1,2.0324268E0,3.1818783E-1,-8.9994675E-1,5.856689E-2,-1.145452E0,-1.4499609E-3,-1.2095695E0,-8.990838E-1,-1.0981098E-1,-8.6922884E-1,-4.8051113E-1,-1.1580155E0,5.141393E-2,-1.0158512E-3,-1.0961118E-2,-5.217914E-2,1.06035374E-1,5.235464E-2,4.2028476E-2,-2.29595E-2,-5.0739337E-2,-2.0582383E-2,1.2289161E-2,-5.9767466E-2,-6.2471516E-2,-4.619218E-2,-6.072983E-2,-2.464657E-2,-4.9145173E-2,1.0683357E-2,-2.1640206E-2,4.1458182E-2,-5.2255552E-2,-2.5355075E-2,-4.218648E-2,1.1036071E-2,-5.9251856E-2,-2.1153016E-2],"categories":[],"categories_nodes":[],"categories_segments":[],"categories_sizes":[],"default_left":[0,0,0,0,0,0,0,0,0,0,0,0,0,0,0,0,0,0,0,0,0,0,0,0,0,0,0,0,0,0,0,0,0,0,0,0,0,0,0,0,0,0,0,0,0,0,0,0,0,0,0,0,0,0,0],"id":5,"left_children":[1,3,5,7,9,11,13,15,17,19,21,23,-1,25,27,29,31,33,35,37,39,41,-1,43,45,47,49,51,53,-1,-1,-1,-1,-1,-1,-1,-1,-1,-1,-1,-1,-1,-1,-1,-1,-1,-1,-1,-1,-1,-1,-1,-1,-1,-1],"loss_changes":[4.096799E2,3.28854E2,3.0463562E0,1.6357382E2,2.125911E1,3.1436157E-1,3.063057E0,1.2253166E2,2.469812E1,3.1517721E1,1.8844681E0,2.4502563E-1,0E0,3.9941826E0,3.9842606E-1,1.0255112E2,1.3597767E1,5.7828674E0,4.7313166E0,3.8838654E0,1.5047748E1,6.7892456E-1,0E0,2.5604248E-2,1.9723816E0,3.8587358E0,8.817978E-1,1.1902008E0,9.028244E-2,0E0,0E0,0E0,0E0,0E0,0E0,0E0,0E0,0E0,0E0,0E0,0E0,0E0,0E0,0E0,0E0,0E0,0E0,0E0,0E0,0E0,0E0,0E0,0E0,0E0,0E0],"parents":[2147483647,0,0,1,1,2,2,3,3,4,4,5,5,6,6,7,7,8,8,9,9,10,10,11,11,13,13,14,14,15,15,16,16,17,17,18,18,19,19,20,20,21,21,23,23,24,24,25,25,26,26,27,27,28,28],"right_children":[2,4,6,8,10,12,14,16,18,20,22,24,-1,26,28,30,32,34,36,38,40,42,-1,44,46,48,50,52,54,-1,-1,-1,-1,-1,-1,-1,-1,-1,-1,-1,-1,-1,-1,-1,-1,-1,-1,-1,-1,-1,-1,-1,-1,-1,-1],"split_conditions":[1E0,1E0,9.195E1,6.5E1,2E0,8E1,2E0,2E0,3E0,1E0,1E0,5.3323E4,-1.6070144E-2,4E1,9.43E1,1E0,6E0,5E1,7E0,1E0,1E0,8.895E1,-1.4499609E-3,1.4E2,6E1,3.8E1,1E0,1.50876E3,4.731E1,5.141393E-2,-1.0158512E-3,-1.0961118E-2,-5.217914E-2,1.06035374E-1,5.235464E-2,4.2028476E-2,-2.29595E-2,-5.0739337E-2,-2.0582383E-2,1.2289161E-2,-5.9767466E-2,-6.2471516E-2,-4.619218E-2,-6.072983E-2,-2.464657E-2,-4.9145173E-2,1.0683357E-2,-2.1640206E-2,4.1458182E-2,-5.2255552E-2,-2.5355075E-2,-4.218648E-2,1.1036071E-2,-5.9251856E-2,-2.1153016E-2],"split_indices":[40,39,25,1,9,1,9,9,9,21,35,7,0,1,25,41,9,10,9,8,5,25,0,28,28,1,4,29,12,0,0,0,0,0,0,0,0,0,0,0,0,0,0,0,0,0,0,0,0,0,0,0,0,0,0],"split_type":[0,0,0,0,0,0,0,0,0,0,0,0,0,0,0,0,0,0,0,0,0,0,0,0,0,0,0,0,0,0,0,0,0,0,0,0,0,0,0,0,0,0,0,0,0,0,0,0,0,0,0,0,0,0,0],"sum_hessian":[1.0819806E3,8.270448E2,2.5493575E2,6.09334E2,2.1771083E2,1.9149797E2,6.3437786E1,5.0862476E2,1.0070923E2,1.3755861E2,8.015223E1,1.901895E2,1.3084643E0,3.1705711E1,3.1732073E1,4.2814804E2,8.0476715E1,9.100875E1,9.7004795E0,7.570992E1,6.1848675E1,7.8557434E1,1.5947986E0,1.7229427E2,1.7895233E1,1.0539974E1,2.1165737E1,2.941771E0,2.8790302E1,2.912153E2,1.3693274E2,3.9630478E1,4.0846233E1,8.2467804E1,8.540951E0,5.7531767E0,3.947303E0,6.0421555E1,1.5288372E1,5.4513508E1,7.3351674E0,5.0312744E1,2.8244688E1,1.7040405E2,1.8902185E0,1.6750189E1,1.1450435E0,8.243427E0,2.2965477E0,1.2976924E1,8.188813E0,1.804093E0,1.1376781E0,2.7178648E1,1.6116546E0],"tree_param":{"num_deleted":"0","num_feature":"43","num_nodes":"55","size_leaf_vector":"1"}},{"base_weights":[-5.6325775E-3,3.1892273E-1,-1.0916735E0,6.71366E-1,-6.954293E-1,-1.1631434E0,-8.6303544E-1,4.532106E-1,1.7447163E0,-4.552368E-1,-1.1044114E0,-1.1674137E0,-1.5688462E-2,-6.0876447E-1,-1.0934465E0,6.510497E-1,-6.2442714E-1,1.8910758E0,3.0253494E-1,-7.238119E-1,3.5376638E-1,-1.1263134E0,-1.4060936E-3,-1.1923407E0,-8.780102E-1,-1.0321283E-1,-8.4867674E-1,-4.6865258E-1,-1.140194E0,4.7984153E-2,-9.658439E-4,-1.0484109E-2,-5.1032085E-2,9.614417E-2,7.0871054E-3,3.9688513E-2,-2.2252249E-2,-4.5511425E-2,-4.9519986E-3,2.6185889E-2,-5.0803255E-2,-6.1613124E-2,-4.5135807E-2,-5.987231E-2,-2.4063181E-2,-4.216638E-4,-5.012978E-2,-1.9369341E-2,4.6763133E-2,-1.257237E-2,-4.6798926E-2,1.0730934E-2,-4.1445576E-2,-5.8378674E-2,-2.064648E-2],"categories":[],"categories_nodes":[],"categories_segments":[],"categories_sizes":[],"default_left":[0,0,0,0,0,0,0,0,0,0,0,0,0,0,0,0,0,0,0,0,0,0,0,0,0,0,0,0,0,0,0,0,0,0,0,0,0,0,0,0,0,0,0,0,0,0,0,0,0,0,0,0,0,0,0],"id":6,"left_children":[1,3,5,7,9,11,13,15,17,19,21,23,-1,25,27,29,31,33,35,37,39,41,-1,43,45,47,49,51,53,-1,-1,-1,-1,-1,-1,-1,-1,-1,-1,-1,-1,-1,-1,-1,-1,-1,-1,-1,-1,-1,-1,-1,-1,-1,-1],"loss_changes":[3.7974066E2,2.9700507E2,3.046692E0,1.4347202E2,2.0556755E1,3.0822754E-1,3.019867E0,1.0985788E2,2.132013E1,2.9971338E1,1.8215942E0,2.8530884E-1,0E0,3.8131647E0,3.9286804E-1,8.986098E1,1.29552765E1,4.9561462E0,4.2997317E0,1.1906437E1,8.623976E0,7.123337E-1,0E0,3.086853E-2,1.9890652E0,3.7527566E0,8.9462566E-1,1.139818E0,9.210205E-2,0E0,0E0,0E0,0E0,0E0,0E0,0E0,0E0,0E0,0E0,0E0,0E0,0E0,0E0,0E0,0E0,0E0,0E0,0E0,0E0,0E0,0E0,0E0,0E0,0E0,0E0],"parents":[2147483647,0,0,1,1,2,2,3,3,4,4,5,5,6,6,7,7,8,8,9,9,10,10,11,11,13,13,14,14,15,15,16,16,17,17,18,18,19,19,20,20,21,21,23,23,24,24,25,25,26,26,27,27,28,28],"right_children":[2,4,6,8,10,12,14,16,18,20,22,24,-1,26,28,30,32,34,36,38,40,42,-1,44,46,48,50,52,54,-1,-1,-1,-1,-1,-1,-1,-1,-1,-1,-1,-1,-1,-1,-1,-1,-1,-1,-1,-1,-1,-1,-1,-1,-1,-1],"split_conditions":[1E0,1E0,9.195E1,6.5E1,2E0,8E1,2E0,2E0,3E0,9.52E1,1E0,5.3323E4,-1.5688462E-2,4E1,9.43E1,1E0,6E0,6.1519E3,7E0,1E0,1E0,8.895E1,-1.4060936E-3,1.4E2,5.5062E4,4.075E4,9.665E1,3.499E3,3.32352E3,4.7984153E-2,-9.658439E-4,-1.0484109E-2,-5.1032085E-2,9.614417E-2,7.0871054E-3,3.9688513E-2,-2.2252249E-2,-4.5511425E-2,-4.9519986E-3,2.6185889E-2,-5.0803255E-2,-6.1613124E-2,-4.5135807E-2,-5.987231E-2,-2.4063181E-2,-4.216638E-4,-5.012978E-2,-1.9369341E-2,4.6763133E-2,-1.257237E-2,-4.6798926E-2,1.0730934E-2,-4.1445576E-2,-5.8378674E-2,-2.064648E-2],"split_indices":[40,39,25,1,9,1,9,9,9,25,35,7,0,1,25,41,9,26,9,8,5,25,0,28,7,7,25,7,29,0,0,0,0,0,0,0,0,0,0,0,0,0,0,0,0,0,0,0,0,0,0,0,0,0,0],"split_type":[0,0,0,0,0,0,0,0,0,0,0,0,0,0,0,0,0,0,0,0,0,0,0,0,0,0,0,0,0,0,0,0,0,0,0,0,0,0,0,0,0,0,0,0,0,0,0,0,0,0,0,0,0,0,0],"sum_hessian":[1.0753508E3,8.284739E2,2.4687697E2,6.150937E2,2.133802E2,1.8496997E2,6.1906994E1,5.1237683E2,1.0271689E2,1.3576147E2,7.761873E1,1.8367209E2,1.2978823E0,3.1161112E1,3.074588E1,4.3323654E2,7.914027E1,9.297053E1,9.746361E0,1.020034E2,3.3758068E1,7.602517E1,1.5935552E0,1.66234E2,1.7438108E1,1.0488849E1,2.0672264E1,2.907781E0,2.78381E1,2.963616E2,1.3687495E2,3.9413094E1,3.9727173E1,9.121283E1,1.7577014E0,5.844288E0,3.9020727E0,7.8210434E1,2.3792969E1,3.058157E1,3.1764967E0,4.852234E1,2.7502834E1,1.6436983E2,1.8641542E0,2.3190901E0,1.5119018E1,8.727559E0,1.76129E0,3.1313033E0,1.754096E1,1.1434208E0,1.7643601E0,2.6244633E1,1.5934669E0],"tree_param":{"num_deleted":"0","num_feature":"43","num_nodes":"55","size_leaf_vector":"1"}},{"base_weights":[-6.2646777E-3,3.0232117E-1,-1.0733964E0,6.327859E-1,-6.7558366E-1,-1.1462328E0,-8.429109E-1,1.2083637E-1,1.0576258E0,-4.3917418E-1,-1.0858151E0,-1.1505802E0,-1.5316277E-2,-5.8950734E-1,-1.0759196E0,6.586005E-1,-2.6107278E-1,1.523852E0,5.5786216E-1,-8.6082333E-1,6.0432542E-2,-1.1080624E0,-1.3635465E-3,-1.1761142E0,-8.578555E-1,-9.61884E-2,-8.281936E-1,-4.5723575E-1,-1.1232591E0,-1.7936733E-3,5.427099E-2,-1.8680284E-2,9.266805E-2,1.0513427E-1,6.6122286E-2,3.7981536E-2,-4.105858E-2,-4.4701166E-2,2.7584914E-2,-1.4872104E-2,3.4959823E-2,-6.0812782E-2,-4.4107642E-2,-5.9065558E-2,-2.3494339E-2,-4.0700223E-4,-4.9148746E-2,1.3092331E-2,-4.6896096E-2,-5.051465E-2,-2.3128185E-2,-4.1120857E-2,1.1393911E-2,-5.7568688E-2,-1.977668E-2],"categories":[],"categories_nodes":[],"categories_segments":[],"categories_sizes":[],"default_left":[0,0,0,0,0,0,0,0,0,0,0,0,0,0,0,0,0,0,0,0,0,0,0,0,0,0,0,0,0,0,0,0,0,0,0,0,0,0,0,0,0,0,0,0,0,0,0,0,0,0,0,0,0,0,0],"id":7,"left_children":[1,3,5,7,9,11,13,15,17,19,21,23,-1,25,27,29,31,33,35,37,39,41,-1,43,45,47,49,51,53,-1,-1,-1,-1,-1,-1,-1,-1,-1,-1,-1,-1,-1,-1,-1,-1,-1,-1,-1,-1,-1,-1,-1,-1,-1,-1],"loss_changes":[3.5230746E2,2.6862003E2,3.0625E0,1.3489429E2,1.9898918E1,3.0323792E-1,2.9913979E0,5.822507E1,7.816931E1,2.8483727E1,1.7626648E0,3.2365417E-1,0E0,3.6443653E0,3.87825E-1,3.4916748E1,4.0191154E1,1.7606537E1,4.6606068E1,3.9287567E0,1.4542579E1,7.489624E-1,0E0,3.6880493E-2,1.9056292E0,3.6944928E0,9.4305515E-1,1.1566818E0,1.1549759E-1,0E0,0E0,0E0,0E0,0E0,0E0,0E0,0E0,0E0,0E0,0E0,0E0,0E0,0E0,0E0,0E0,0E0,0E0,0E0,0E0,0E0,0E0,0E0,0E0,0E0,0E0],"parents":[2147483647,0,0,1,1,2,2,3,3,4,4,5,5,6,6,7,7,8,8,9,9,10,10,11,11,13,13,14,14,15,15,16,16,17,17,18,18,19,19,20,20,21,21,23,23,24,24,25,25,26,26,27,27,28,28],"right_children":[2,4,6,8,10,12,14,16,18,20,22,24,-1,26,28,30,32,34,36,38,40,42,-1,44,46,48,50,52,54,-1,-1,-1,-1,-1,-1,-1,-1,-1,-1,-1,-1,-1,-1,-1,-1,-1,-1,-1,-1,-1,-1,-1,-1,-1,-1],"split_conditions":[1E0,1E0,9.195E1,1E0,2E0,8E1,2E0,5E0,1.68758E3,1E0,1E0,5.3323E4,-1.5316277E-2,4E1,9.43E1,3E0,8.33E1,1.183E2,1E0,1E0,1E0,8.895E1,-1.3635465E-3,1.4E2,5.5062E4,7.2E1,1E0,1.50876E3,4.731E1,-1.7936733E-3,5.427099E-2,-1.8680284E-2,9.266805E-2,1.0513427E-1,6.6122286E-2,3.7981536E-2,-4.105858E-2,-4.4701166E-2,2.7584914E-2,-1.4872104E-2,3.4959823E-2,-6.0812782E-2,-4.4107642E-2,-5.9065558E-2,-2.3494339E-2,-4.0700223E-4,-4.9148746E-2,1.3092331E-2,-4.6896096E-2,-5.051465E-2,-2.3128185E-2,-4.1120857E-2,1.1393911E-2,-5.7568688E-2,-1.977668E-2],"split_indices":[40,39,25,37,9,1,9,10,30,21,35,7,0,1,25,15,25,26,5,22,8,25,0,28,7,10,4,29,12,0,0,0,0,0,0,0,0,0,0,0,0,0,0,0,0,0,0,0,0,0,0,0,0,0,0],"split_type":[0,0,0,0,0,0,0,0,0,0,0,0,0,0,0,0,0,0,0,0,0,0,0,0,0,0,0,0,0,0,0,0,0,0,0,0,0,0,0,0,0,0,0,0,0,0,0,0,0,0,0,0,0,0,0],"sum_hessian":[1.0678767E3,8.288983E2,2.3897844E2,6.1980096E2,2.0909732E2,1.7857372E2,6.040472E1,2.816661E2,3.3813486E2,1.339657E2,7.513162E1,1.772862E2,1.2875153E0,3.0626993E1,2.9777725E1,1.16665535E2,1.650006E2,1.73877E2,1.6425786E2,7.225891E1,6.170679E1,7.3539276E1,1.5923494E0,1.6028673E2,1.6999466E1,1.0444074E1,2.018292E1,2.8741255E0,2.69036E1,4.4757286E1,7.190825E1,1.574445E2,7.556092E0,4.244674E1,1.3143027E2,1.4368434E2,2.0573517E1,7.095818E1,1.3007288E0,3.9891487E1,2.1815304E1,4.6760693E1,2.6778582E1,1.5844804E2,1.8386883E0,2.3185694E0,1.4680896E1,7.8106847E0,2.633389E0,1.2295884E1,7.887036E0,1.7440813E0,1.1300443E0,2.5342375E1,1.561225E0],"tree_param":{"num_deleted":"0","num_feature":"43","num_nodes":"55","size_leaf_vector":"1"}},{"base_weights":[-6.675925E-3,2.8700203E-1,-1.0560421E0,5.970706E-1,-6.5620774E-1,-1.1301641E0,-8.2420635E-1,3.963888E-1,1.5780652E0,-4.2332864E-1,-1.0679837E0,-1.1345966E0,-1.4953312E-2,-5.7270515E-1,-1.0590924E0,5.7528675E-1,-6.099924E-1,1.6603376E0,-4.495622E-1,-8.3976763E-1,5.7602145E-2,-1.0906012E0,-1.3222819E-3,-1.1607883E0,-8.3827823E-1,-9.466605E-2,-8.087115E-1,-4.4605476E-1,-1.1071019E0,4.261557E-2,-1.8736083E-3,-1.19996555E-2,-5.1840235E-2,8.5378274E-2,2.3502674E-2,3.5560183E-2,-4.8996415E-2,-4.3658044E-2,2.6591456E-2,1.1709307E-2,-5.844857E-2,-6.0064938E-2,-4.310488E-2,-5.8304466E-2,-2.2939542E-2,-4.6327602E-2,1.22907E-2,-2.5047693E-2,2.979044E-2,-4.9586654E-2,-2.2365857E-2,1.1084301E-2,-4.0417727E-2,-5.678421E-2,-1.9304072E-2],"categories":[],"categories_nodes":[],"categories_segments":[],"categories_sizes":[],"default_left":[0,0,0,0,0,0,0,0,0,0,0,0,0,0,0,0,0,0,0,0,0,0,0,0,0,0,0,0,0,0,0,0,0,0,0,0,0,0,0,0,0,0,0,0,0,0,0,0,0,0,0,0,0,0,0],"id":8,"left_children":[1,3,5,7,9,11,13,15,17,19,21,23,-1,25,27,29,31,33,35,37,39,41,-1,43,45,47,49,51,53,-1,-1,-1,-1,-1,-1,-1,-1,-1,-1,-1,-1,-1,-1,-1,-1,-1,-1,-1,-1,-1,-1,-1,-1,-1,-1],"loss_changes":[3.2736258E2,2.431326E2,3.060028E0,1.2245119E2,1.9285072E1,2.9914856E-1,2.9359093E0,9.403233E1,1.8401917E1,2.6710777E1,1.7072144E0,3.6210632E-1,0E0,3.4362535E0,3.8411713E-1,7.511485E1,1.2230284E1,4.9268494E0,3.7220602E0,3.7351685E0,1.3857498E1,7.882385E-1,0E0,4.3533325E-2,1.9092045E0,3.503199E0,9.263725E-1,1.1084747E0,1.1772537E-1,0E0,0E0,0E0,0E0,0E0,0E0,0E0,0E0,0E0,0E0,0E0,0E0,0E0,0E0,0E0,0E0,0E0,0E0,0E0,0E0,0E0,0E0,0E0,0E0,0E0,0E0],"parents":[2147483647,0,0,1,1,2,2,3,3,4,4,5,5,6,6,7,7,8,8,9,9,10,10,11,11,13,13,14,14,15,15,16,16,17,17,18,18,19,19,20,20,21,21,23,23,24,24,25,25,26,26,27,27,28,28],"right_children":[2,4,6,8,10,12,14,16,18,20,22,24,-1,26,28,30,32,34,36,38,40,42,-1,44,46,48,50,52,54,-1,-1,-1,-1,-1,-1,-1,-1,-1,-1,-1,-1,-1,-1,-1,-1,-1,-1,-1,-1,-1,-1,-1,-1,-1,-1],"split_conditions":[1E0,1E0,9.195E1,6.5E1,2E0,8E1,2E0,2E0,7E0,1E0,1E0,5.3323E4,-1.4953312E-2,4E1,9.43E1,1E0,1E0,5.9E1,3.148E3,1E0,1E0,8.895E1,-1.3222819E-3,1.4E2,6E1,3.4E1,1E0,3.499E3,3.32352E3,4.261557E-2,-1.8736083E-3,-1.19996555E-2,-5.1840235E-2,8.5378274E-2,2.3502674E-2,3.5560183E-2,-4.8996415E-2,-4.3658044E-2,2.6591456E-2,1.1709307E-2,-5.844857E-2,-6.0064938E-2,-4.310488E-2,-5.8304466E-2,-2.2939542E-2,-4.6327602E-2,1.22907E-2,-2.5047693E-2,2.979044E-2,-4.9586654E-2,-2.2365857E-2,1.1084301E-2,-4.0417727E-2,-5.678421E-2,-1.9304072E-2],"split_indices":[40,39,25,1,9,1,9,9,9,21,35,7,0,1,25,41,5,10,7,22,5,25,0,28,28,1,4,7,29,0,0,0,0,0,0,0,0,0,0,0,0,0,0,0,0,0,0,0,0,0,0,0,0,0,0],"split_type":[0,0,0,0,0,0,0,0,0,0,0,0,0,0,0,0,0,0,0,0,0,0,0,0,0,0,0,0,0,0,0,0,0,0,0,0,0,0,0,0,0,0,0,0,0,0,0,0,0,0,0,0,0,0,0],"sum_hessian":[1.0602761E3,8.289975E2,2.312786E2,6.2417474E2,2.0482274E2,1.7231236E2,5.896624E1,5.19338E2,1.04836754E2,1.3212675E2,7.269598E1,1.71035E2,1.2773626E0,3.0136354E1,2.8829884E1,4.4131638E2,7.802163E1,1.00922874E2,3.9138732E0,7.0411316E1,6.1715443E1,7.11048E1,1.5911798E0,1.5446448E2,1.6570518E1,1.0423767E1,1.9712587E1,2.841208E0,2.5988676E1,3.0364798E2,1.3766838E2,4.2629143E1,3.539249E1,9.6653305E1,4.2695756E0,1.1205206E0,2.7933526E0,6.909257E1,1.3187499E0,5.4655956E1,7.0594864E0,4.5032005E1,2.6072792E1,1.5265067E2,1.8138212E0,1.54572115E1,1.1133057E0,6.7351584E0,3.688609E0,1.1927791E1,7.784797E0,1.1358608E0,1.7053473E0,2.4444553E1,1.5441222E0],"tree_param":{"num_deleted":"0","num_feature":"43","num_nodes":"55","size_leaf_vector":"1"}},{"base_weights":[-7.2254958E-3,2.7255163E-1,-1.0392469E0,5.643133E-1,-6.3743895E-1,-1.1148124E0,-8.056778E-1,9.500338E-2,9.4911E-1,-4.688356E-1,-6.0609814E-2,-1.1408327E0,-8.2388926E-1,-5.555399E-1,-1.0429326E0,5.9229976E-1,-2.6531324E-1,1.3963621E0,5.108616E-1,-8.3156466E-1,-9.293268E-2,-1.1462723E0,-1.0176065E-2,1.7413909E-2,-9.519823E-1,-1.901971E-1,-8.641178E-1,-4.352846E-1,-1.0916557E0,1.9119525E-3,5.230189E-2,-1.8600602E-2,8.425365E-2,9.508245E-2,6.0369648E-2,1.1832721E-2,7.125321E-2,-4.3535065E-2,2.6430754E-2,1.1074193E-2,-4.1762955E-2,-5.7584483E-2,-2.2398323E-2,-3.4755822E-2,3.8010504E-2,-8.50791E-3,-5.3017654E-2,-2.7196541E-2,2.6411353E-2,-7.729354E-3,-5.3355485E-2,-4.0121254E-2,1.1710837E-2,-5.6053575E-2,-1.8477825E-2],"categories":[],"categories_nodes":[],"categories_segments":[],"categories_sizes":[],"default_left":[0,0,0,0,0,0,0,0,0,0,0,0,0,0,0,0,0,0,0,0,0,0,0,0,0,0,0,0,0,0,0,0,0,0,0,0,0,0,0,0,0,0,0,0,0,0,0,0,0,0,0,0,0,0,0],"id":9,"left_children":[1,3,5,7,9,11,13,15,17,19,-1,21,23,25,27,29,31,33,35,37,39,41,-1,43,45,47,49,51,53,-1,-1,-1,-1,-1,-1,-1,-1,-1,-1,-1,-1,-1,-1,-1,-1,-1,-1,-1,-1,-1,-1,-1,-1,-1,-1],"loss_changes":[3.0423935E2,2.204556E2,3.0681915E0,1.13365616E2,1.8980614E1,3.2566833E-1,2.894699E0,5.1073357E1,6.692859E1,2.1412502E1,0E0,5.359192E-1,1.8836346E0,3.2894201E0,3.8055038E-1,3.0050945E1,3.5060028E1,1.395697E1,4.375268E1,4.7233086E0,1.8512367E1,5.0689697E-2,0E0,2.2598405E0,1.0950432E0,4.1780252E0,2.1864386E0,1.1241237E0,1.3997841E-1,0E0,0E0,0E0,0E0,0E0,0E0,0E0,0E0,0E0,0E0,0E0,0E0,0E0,0E0,0E0,0E0,0E0,0E0,0E0,0E0,0E0,0E0,0E0,0E0,0E0,0E0],"parents":[2147483647,0,0,1,1,2,2,3,3,4,4,5,5,6,6,7,7,8,8,9,9,11,11,12,12,13,13,14,14,15,15,16,16,17,17,18,18,19,19,20,20,21,21,23,23,24,24,25,25,26,26,27,27,28,28],"right_children":[2,4,6,8,10,12,14,16,18,20,-1,22,24,26,28,30,32,34,36,38,40,42,-1,44,46,48,50,52,54,-1,-1,-1,-1,-1,-1,-1,-1,-1,-1,-1,-1,-1,-1,-1,-1,-1,-1,-1,-1,-1,-1,-1,-1,-1,-1],"split_conditions":[1E0,1E0,9.195E1,1E0,1E0,5.3323E4,2E0,5E0,1.53739E3,1E0,-6.0609814E-2,8E1,5.5062E4,4.9E1,9.43E1,8E0,8.33E1,1.183E2,6.7E1,1E0,2E0,1.4E2,-1.0176065E-2,3.3E1,1E0,3.0614E4,1.2E1,1.50876E3,4.731E1,1.9119525E-3,5.230189E-2,-1.8600602E-2,8.425365E-2,9.508245E-2,6.0369648E-2,1.1832721E-2,7.125321E-2,-4.3535065E-2,2.6430754E-2,1.1074193E-2,-4.1762955E-2,-5.7584483E-2,-2.2398323E-2,-3.4755822E-2,3.8010504E-2,-8.50791E-3,-5.3017654E-2,-2.7196541E-2,2.6411353E-2,-7.729354E-3,-5.3355485E-2,-4.0121254E-2,1.1710837E-2,-5.6053575E-2,-1.8477825E-2],"split_indices":[40,39,25,37,5,7,9,10,30,21,0,1,7,1,25,15,25,26,1,22,9,28,0,10,11,7,15,29,12,0,0,0,0,0,0,0,0,0,0,0,0,0,0,0,0,0,0,0,0,0,0,0,0,0,0],"split_type":[0,0,0,0,0,0,0,0,0,0,0,0,0,0,0,0,0,0,0,0,0,0,0,0,0,0,0,0,0,0,0,0,0,0,0,0,0,0,0,0,0,0,0,0,0,0,0,0,0,0,0,0,0,0,0],"sum_hessian":[1.051713E3,8.2798517E2,2.2372777E2,6.272544E2,2.0073077E2,1.6618861E2,5.7539158E1,2.8315576E2,3.4409863E2,1.5660643E2,4.4124332E1,1.4986336E2,1.6325256E1,2.9635736E1,2.7903423E1,1.18694275E2,1.644615E2,1.6921793E2,1.748807E2,7.9082886E1,7.7523544E1,1.48777E2,1.0863625E0,2.2713423E0,1.4053914E1,1.4309855E1,1.5325881E1,2.8086996E0,2.5094723E1,5.3927525E1,6.4766754E1,1.5669835E2,7.763153E0,4.359242E1,1.2562551E2,1.354981E2,3.9382614E1,7.722086E1,1.8620243E0,5.495056E1,2.2572985E1,1.4698744E2,1.7895515E0,1.1920515E0,1.0792907E0,2.0237832E0,1.203013E1,9.751398E0,4.558457E0,3.801122E0,1.1524759E1,1.685736E0,1.1229635E0,2.358158E1,1.5131428E0],"tree_param":{"num_deleted":"0","num_feature":"43","num_nodes":"55","size_leaf_vector":"1"}},{"base_weights":[-7.4116E-3,2.593349E-1,-1.0229743E0,5.341275E-1,-6.1898166E-1,-1.1002018E0,-7.872816E-1,7.0389456E-1,-4.4199997E-1,-4.5292157E-1,-5.9874933E-2,-1.1269097E0,-8.057388E-1,-6.1946505E-1,-5.8089983E-2,1.9811279E-1,1.0159122E0,-9.032394E-2,-9.9966824E-1,-8.117234E-1,-8.921207E-2,-1.1324848E0,-9.939521E-3,1.730024E-2,-9.344375E-1,-3.670851E-1,-1.0180734E0,2.6903052E-2,-2.3214776E-2,6.867533E-2,3.1611364E-2,2.4632277E-2,-1.9621775E-2,-2.1645643E-2,-5.682196E-2,-4.2553008E-2,2.5348527E-2,1.0477061E-2,-4.0815305E-2,-5.6901503E-2,-2.1870246E-2,-3.4185067E-2,3.6637545E-2,-8.25262E-3,-5.2199047E-2,1.3252668E-3,-5.061182E-2,-1.16385305E-2,-5.6628186E-2],"categories":[],"categories_nodes":[],"categories_segments":[],"categories_sizes":[],"default_left":[0,0,0,0,0,0,0,0,0,0,0,0,0,0,0,0,0,0,0,0,0,0,0,0,0,0,0,0,0,0,0,0,0,0,0,0,0,0,0,0,0,0,0,0,0,0,0,0,0],"id":10,"left_children":[1,3,5,7,9,11,13,15,17,19,-1,21,23,25,-1,27,29,31,33,35,37,39,-1,41,43,45,47,-1,-1,-1,-1,-1,-1,-1,-1,-1,-1,-1,-1,-1,-1,-1,-1,-1,-1,-1,-1,-1,-1],"loss_changes":[2.8311136E2,2.0010208E2,3.0908813E0,1.04876465E2,1.8451431E1,3.600006E-1,2.8733902E0,8.468622E1,1.8364094E1,2.0184332E1,0E0,5.2674866E-1,1.8079987E0,3.8133955E0,0E0,4.6743393E1,4.474228E1,1.0550409E1,2.3212013E0,4.4783936E0,1.7159649E1,5.8151245E-2,0E0,2.1406493E0,1.0621462E0,6.8952646E0,1.1364517E0,0E0,0E0,0E0,0E0,0E0,0E0,0E0,0E0,0E0,0E0,0E0,0E0,0E0,0E0,0E0,0E0,0E0,0E0,0E0,0E0,0E0,0E0],"parents":[2147483647,0,0,1,1,2,2,3,3,4,4,5,5,6,6,7,7,8,8,9,9,11,11,12,12,13,13,15,15,16,16,17,17,18,18,19,19,20,20,21,21,23,23,24,24,25,25,26,26],"right_children":[2,4,6,8,10,12,14,16,18,20,-1,22,24,26,-1,28,30,32,34,36,38,40,-1,42,44,46,48,-1,-1,-1,-1,-1,-1,-1,-1,-1,-1,-1,-1,-1,-1,-1,-1,-1,-1,-1,-1,-1,-1],"split_conditions":[1E0,1E0,9.195E1,1E0,1E0,5.3323E4,1E0,6.92E1,2E0,1E0,-5.9874933E-2,8E1,5.5062E4,6.4E1,-5.8089983E-2,9.962E1,1.5E1,6E0,8E0,1E0,2E0,1.4E2,-9.939521E-3,3.3E1,1E0,7.2E1,7E0,2.6903052E-2,-2.3214776E-2,6.867533E-2,3.1611364E-2,2.4632277E-2,-1.9621775E-2,-2.1645643E-2,-5.682196E-2,-4.2553008E-2,2.5348527E-2,1.0477061E-2,-4.0815305E-2,-5.6901503E-2,-2.1870246E-2,-3.4185067E-2,3.6637545E-2,-8.25262E-3,-5.2199047E-2,1.3252668E-3,-5.061182E-2,-1.16385305E-2,-5.6628186E-2],"split_indices":[40,39,25,5,5,7,5,25,9,21,0,1,7,1,0,29,10,10,10,22,9,28,0,10,11,10,15,0,0,0,0,0,0,0,0,0,0,0,0,0,0,0,0,0,0,0,0,0,0],"split_type":[0,0,0,0,0,0,0,0,0,0,0,0,0,0,0,0,0,0,0,0,0,0,0,0,0,0,0,0,0,0,0,0,0,0,0,0,0,0,0,0,0,0,0,0,0,0,0,0,0],"sum_hessian":[1.0431061E3,8.267085E2,2.1639763E2,6.2999756E2,1.9671092E2,1.6022878E2,5.616886E1,5.368994E2,9.309813E1,1.5422455E2,4.2486385E1,1.4431256E2,1.5916206E1,4.062112E1,1.5547742E1,2.0546877E2,3.3143066E2,5.7806335E1,3.529179E1,7.701598E1,7.720856E1,1.4323201E2,1.0805526E0,2.2693157E0,1.3646891E1,2.6049028E1,1.4572093E1,1.3590828E2,6.956048E1,1.7021269E2,1.6121799E2,1.951621E1,3.8290127E1,7.6707506E0,2.762104E1,7.5129486E1,1.8865004E0,5.5227943E1,2.1980618E1,1.4146614E2,1.7658757E0,1.168647E0,1.1006687E0,2.0132735E0,1.1633616E1,1.6774343E1,9.274685E0,2.2400963E0,1.2331997E1],"tree_param":{"num_deleted":"0","num_feature":"43","num_nodes":"49","size_leaf_vector":"1"}},{"base_weights":[-7.910014E-3,2.4650009E-1,-1.0071105E0,5.054946E-1,-6.010254E-1,-1.0862083E0,-7.6905257E-1,3.2556748E-1,1.3850576E0,-4.3748274E-1,-5.918574E-2,-1.1136326E0,-7.881384E-1,-5.159636E-1,-1.0150073E0,4.8247847E-1,-5.924755E-1,1.5149006E0,1.434397E-1,-7.350567E-1,-1.0494695E-2,-1.1193525E0,-9.708609E-3,1.1684736E-2,-8.815016E-1,-1.6230132E-1,-8.254368E-1,-4.0781137E-1,-1.0658473E0,3.6445063E-2,-3.4897754E-3,-9.664057E-3,-4.9368434E-2,7.946279E-2,3.61094E-2,2.7450753E-2,-2.3793636E-2,-2.9497558E-2,-5.390131E-2,1.1839298E-2,-3.2372475E-2,-5.6251865E-2,-2.1354903E-2,-4.9333807E-2,1.2286362E-2,7.3334277E-3,-4.915397E-2,-6.355878E-3,-5.171321E-2,-3.888089E-2,1.2130802E-2,-5.4845165E-2,-1.7042203E-2],"categories":[],"categories_nodes":[],"categories_segments":[],"categories_sizes":[],"default_left":[0,0,0,0,0,0,0,0,0,0,0,0,0,0,0,0,0,0,0,0,0,0,0,0,0,0,0,0,0,0,0,0,0,0,0,0,0,0,0,0,0,0,0,0,0,0,0,0,0,0,0,0,0],"id":11,"left_children":[1,3,5,7,9,11,13,15,17,19,-1,21,23,25,27,29,31,33,35,37,39,41,-1,-1,43,45,47,49,51,-1,-1,-1,-1,-1,-1,-1,-1,-1,-1,-1,-1,-1,-1,-1,-1,-1,-1,-1,-1,-1,-1,-1,-1],"loss_changes":[2.6342587E2,1.816122E2,3.1245728E0,9.975751E1,1.7949257E1,3.9282227E-1,2.9543152E0,7.619708E1,1.7069107E1,1.9420532E1,0E0,5.184784E-1,1.781724E0,3.1025643E0,4.0815163E-1,6.1374763E1,1.2005899E1,4.5678253E0,3.0885563E0,3.8476753E0,1.0204114E1,6.587219E-2,0E0,0E0,2.0615149E0,3.9595516E0,2.1326694E0,1.0856338E0,1.7940521E-1,0E0,0E0,0E0,0E0,0E0,0E0,0E0,0E0,0E0,0E0,0E0,0E0,0E0,0E0,0E0,0E0,0E0,0E0,0E0,0E0,0E0,0E0,0E0,0E0],"parents":[2147483647,0,0,1,1,2,2,3,3,4,4,5,5,6,6,7,7,8,8,9,9,11,11,12,12,13,13,14,14,15,15,16,16,17,17,18,18,19,19,20,20,21,21,24,24,25,25,26,26,27,27,28,28],"right_children":[2,4,6,8,10,12,14,16,18,20,-1,22,24,26,28,30,32,34,36,38,40,42,-1,-1,44,46,48,50,52,-1,-1,-1,-1,-1,-1,-1,-1,-1,-1,-1,-1,-1,-1,-1,-1,-1,-1,-1,-1,-1,-1,-1,-1],"split_conditions":[1E0,1E0,9.195E1,6.5E1,1E0,5.3323E4,2E0,2E0,3E0,8.19E1,-5.918574E-2,8E1,5.4431E4,4.9E1,9.43E1,1E0,6E0,5E1,7E0,2E0,2E0,1.4E2,-9.708609E-3,1.1684736E-2,6E1,1E0,1.2E1,1.50876E3,3.32352E3,3.6445063E-2,-3.4897754E-3,-9.664057E-3,-4.9368434E-2,7.946279E-2,3.61094E-2,2.7450753E-2,-2.3793636E-2,-2.9497558E-2,-5.390131E-2,1.1839298E-2,-3.2372475E-2,-5.6251865E-2,-2.1354903E-2,-4.9333807E-2,1.2286362E-2,7.3334277E-3,-4.915397E-2,-6.355878E-3,-5.171321E-2,-3.888089E-2,1.2130802E-2,-5.4845165E-2,-1.7042203E-2],"split_indices":[40,39,25,1,5,7,9,9,9,25,0,1,7,1,25,41,9,10,9,9,9,28,0,0,28,5,15,29,29,0,0,0,0,0,0,0,0,0,0,0,0,0,0,0,0,0,0,0,0,0,0,0,0],"split_type":[0,0,0,0,0,0,0,0,0,0,0,0,0,0,0,0,0,0,0,0,0,0,0,0,0,0,0,0,0,0,0,0,0,0,0,0,0,0,0,0,0,0,0,0,0,0,0,0,0,0,0,0,0],"sum_hessian":[1.03429E3,8.249896E2,2.0930035E2,6.321999E2,1.9278976E2,1.5442708E2,5.4873283E1,5.259745E2,1.06225395E2,1.5190546E2,4.0884308E1,1.3891035E2,1.5516722E1,2.8571165E1,2.6302116E1,4.496032E2,7.6371284E1,9.5969246E1,1.0256147E1,8.9093475E1,6.281198E1,1.3783548E2,1.0748689E0,1.17321E0,1.4343512E1,1.4045069E1,1.4526097E1,2.7291105E0,2.3573006E1,3.106655E2,1.389377E2,3.87195E1,3.7651783E1,8.6820755E1,9.148493E0,6.266107E0,3.9900398E0,6.4517265E1,2.4576208E1,4.569887E1,1.7113111E1,1.360927E2,1.74279E0,1.323347E1,1.110041E0,1.0800633E1,3.2444348E0,3.7142746E0,1.0811823E1,1.6152159E0,1.1138945E0,2.2112823E1,1.4601825E0],"tree_param":{"num_deleted":"0","num_feature":"43","num_nodes":"53","size_leaf_vector":"1"}},{"base_weights":[-8.311608E-3,2.3458187E-1,-9.918561E-1,4.7931397E-1,-5.834244E-1,-1.0726794E0,-7.5196975E-1,3.0839863E-1,1.316462E0,-4.22488E-1,-5.8538057E-2,-1.1009351E0,-7.698957E-1,-5.0098974E-1,-1.0002676E0,4.558576E-1,-5.731607E-1,1.439764E0,1.3653064E-1,-7.77502E-1,-7.475225E-2,-1.1068095E0,-9.483195E-3,1.13273505E-2,-8.63906E-1,-5.9268035E-2,-7.34981E-1,-3.980267E-1,-1.0519618E0,1.4536719E-2,6.3090295E-2,-9.238053E-3,-4.8313703E-2,7.554852E-2,3.429311E-2,2.610848E-2,-2.3061773E-2,-4.0889785E-2,2.5271108E-2,9.963144E-3,-3.896598E-2,-5.5632263E-2,-2.0851897E-2,-4.8515856E-2,1.1923624E-2,1.3754609E-2,-4.459937E-2,-4.682043E-2,-1.7696634E-2,1.257364E-2,-3.856985E-2,-5.428667E-2,-1.7381756E-2],"categories":[],"categories_nodes":[],"categories_segments":[],"categories_sizes":[],"default_left":[0,0,0,0,0,0,0,0,0,0,0,0,0,0,0,0,0,0,0,0,0,0,0,0,0,0,0,0,0,0,0,0,0,0,0,0,0,0,0,0,0,0,0,0,0,0,0,0,0,0,0,0,0],"id":12,"left_children":[1,3,5,7,9,11,13,15,17,19,-1,21,23,25,27,29,31,33,35,37,39,41,-1,-1,43,45,47,49,51,-1,-1,-1,-1,-1,-1,-1,-1,-1,-1,-1,-1,-1,-1,-1,-1,-1,-1,-1,-1,-1,-1,-1,-1],"loss_changes":[2.4531377E2,1.6514246E2,3.1363373E0,9.036867E1,1.7473892E1,4.3373108E-1,2.901165E0,6.891969E1,1.5408432E1,1.8555182E1,0E0,5.109253E-1,1.7047672E0,2.969841E0,4.0446663E-1,5.9923653E1,1.1445326E1,4.171295E0,2.8348773E0,4.264534E0,1.5074073E1,7.373047E-2,0E0,0E0,1.9825544E0,3.3592181E0,1.1246719E0,1.0909729E0,1.8729973E-1,0E0,0E0,0E0,0E0,0E0,0E0,0E0,0E0,0E0,0E0,0E0,0E0,0E0,0E0,0E0,0E0,0E0,0E0,0E0,0E0,0E0,0E0,0E0,0E0],"parents":[2147483647,0,0,1,1,2,2,3,3,4,4,5,5,6,6,7,7,8,8,9,9,11,11,12,12,13,13,14,14,15,15,16,16,17,17,18,18,19,19,20,20,21,21,24,24,25,25,26,26,27,27,28,28],"right_children":[2,4,6,8,10,12,14,16,18,20,-1,22,24,26,28,30,32,34,36,38,40,42,-1,-1,44,46,48,50,52,-1,-1,-1,-1,-1,-1,-1,-1,-1,-1,-1,-1,-1,-1,-1,-1,-1,-1,-1,-1,-1,-1,-1,-1],"split_conditions":[1E0,1E0,9.195E1,6.5E1,1E0,5.3323E4,2E0,2E0,3E0,1E0,-5.8538057E-2,8E1,5.4431E4,4E1,9.43E1,1E0,6E0,5E1,7E0,1E0,2E0,1.4E2,-9.483195E-3,1.13273505E-2,6E1,7.2E1,1E0,3.499E3,1.093948E4,1.4536719E-2,6.3090295E-2,-9.238053E-3,-4.8313703E-2,7.554852E-2,3.429311E-2,2.610848E-2,-2.3061773E-2,-4.0889785E-2,2.5271108E-2,9.963144E-3,-3.896598E-2,-5.5632263E-2,-2.0851897E-2,-4.8515856E-2,1.1923624E-2,1.3754609E-2,-4.459937E-2,-4.682043E-2,-1.7696634E-2,1.257364E-2,-3.856985E-2,-5.428667E-2,-1.7381756E-2],"split_indices":[40,39,25,1,5,7,9,9,9,21,0,1,7,1,25,8,9,10,9,22,9,28,0,0,28,10,4,7,30,0,0,0,0,0,0,0,0,0,0,0,0,0,0,0,0,0,0,0,0,0,0,0,0],"split_type":[0,0,0,0,0,0,0,0,0,0,0,0,0,0,0,0,0,0,0,0,0,0,0,0,0,0,0,0,0,0,0,0,0,0,0,0,0,0,0,0,0,0,0,0,0,0,0,0,0,0,0,0,0],"sum_hessian":[1.0248881E3,8.225218E2,2.0236626E2,6.334265E2,1.8909528E2,1.4877042E2,5.3595844E1,5.271666E2,1.0625993E2,1.4977477E2,3.9320515E1,1.3366113E2,1.5109289E1,2.8154705E1,2.5441141E1,4.52037E2,7.51296E1,9.6007065E1,1.0252874E1,7.350024E1,7.627453E1,1.3259183E2,1.0693096E0,1.1810622E0,1.3928227E1,1.0183634E1,1.7971071E1,2.698861E0,2.274228E1,3.7630093E2,7.573606E1,3.8530804E1,3.6598797E1,8.680418E1,9.202887E0,6.3091164E0,3.943758E0,7.161357E1,1.8866656E0,5.5433086E1,2.0841442E1,1.3087154E2,1.7202876E0,1.2811361E1,1.1168664E0,7.7438903E0,2.4397438E0,1.0802999E1,7.168072E0,1.1043162E0,1.5945448E0,2.1184967E1,1.5573126E0],"tree_param":{"num_deleted":"0","num_feature":"43","num_nodes":"53","size_leaf_vector":"1"}},{"base_weights":[-8.579893E-3,2.2335704E-1,-9.770675E-1,4.5455512E-1,-5.6635404E-1,-1.0596367E0,-7.354085E-1,6.0655266E-1,-4.426462E-1,-4.079149E-1,-5.7928145E-2,-1.0887574E0,-7.520796E-1,-5.649404E-1,-5.637594E-2,1.485398E-1,8.8935095E-1,2.7646038E-1,-6.784549E-1,-7.004503E-1,-2.2729076E-3,-1.0947956E0,-9.263137E-3,2.5593966E-2,-8.83866E-1,-3.1609884E-1,-9.746579E-1,2.455285E-2,-2.093821E-2,6.115538E-2,2.661213E-2,2.6219345E-3,4.7778577E-2,-3.7736934E-2,4.514604E-2,-2.7751595E-2,-5.266508E-2,7.6852874E-3,-4.351437E-2,-5.5039663E-2,-2.0360885E-2,-3.3466976E-2,3.5865217E-2,-5.7364563E-3,-5.0040822E-2,3.2671844E-3,-4.8696484E-2,-9.181055E-3,-5.4850984E-2],"categories":[],"categories_nodes":[],"categories_segments":[],"categories_sizes":[],"default_left":[0,0,0,0,0,0,0,0,0,0,0,0,0,0,0,0,0,0,0,0,0,0,0,0,0,0,0,0,0,0,0,0,0,0,0,0,0,0,0,0,0,0,0,0,0,0,0,0,0],"id":13,"left_children":[1,3,5,7,9,11,13,15,17,19,-1,21,23,25,-1,27,29,31,33,35,37,39,-1,41,43,45,47,-1,-1,-1,-1,-1,-1,-1,-1,-1,-1,-1,-1,-1,-1,-1,-1,-1,-1,-1,-1,-1,-1],"loss_changes":[2.2859395E2,1.5016669E2,3.144043E0,8.6957214E1,1.701577E1,4.734192E-1,2.9284363E0,7.033069E1,1.5901535E1,1.76306E1,0E0,5.040283E-1,1.6330299E0,3.6867046E0,0E0,4.079162E1,3.9412262E1,3.5394206E0,9.134769E0,3.8449059E0,8.698866E0,8.166504E-2,0E0,2.0418022E0,1.0963221E0,6.5517454E0,1.1851435E0,0E0,0E0,0E0,0E0,0E0,0E0,0E0,0E0,0E0,0E0,0E0,0E0,0E0,0E0,0E0,0E0,0E0,0E0,0E0,0E0,0E0,0E0],"parents":[2147483647,0,0,1,1,2,2,3,3,4,4,5,5,6,6,7,7,8,8,9,9,11,11,12,12,13,13,15,15,16,16,17,17,18,18,19,19,20,20,21,21,23,23,24,24,25,25,26,26],"right_children":[2,4,6,8,10,12,14,16,18,20,-1,22,24,26,-1,28,30,32,34,36,38,40,-1,42,44,46,48,-1,-1,-1,-1,-1,-1,-1,-1,-1,-1,-1,-1,-1,-1,-1,-1,-1,-1,-1,-1,-1,-1],"split_conditions":[1E0,1E0,9.195E1,1E0,1E0,5.3323E4,1E0,6.92E1,5E0,8.19E1,-5.7928145E-2,8E1,5.5062E4,6.4E1,-5.637594E-2,7.884E1,1.5E1,4.0346E4,7E1,2E0,6E0,1.4E2,-9.263137E-3,3.3E1,1E0,7.2E1,7E0,2.455285E-2,-2.093821E-2,6.115538E-2,2.661213E-2,2.6219345E-3,4.7778577E-2,-3.7736934E-2,4.514604E-2,-2.7751595E-2,-5.266508E-2,7.6852874E-3,-4.351437E-2,-5.5039663E-2,-2.0360885E-2,-3.3466976E-2,3.5865217E-2,-5.7364563E-3,-5.0040822E-2,3.2671844E-3,-4.8696484E-2,-9.181055E-3,-5.4850984E-2],"split_indices":[40,39,25,5,5,7,5,25,10,25,0,1,7,1,0,29,10,7,1,9,9,28,0,10,11,10,15,0,0,0,0,0,0,0,0,0,0,0,0,0,0,0,0,0,0,0,0,0,0],"split_type":[0,0,0,0,0,0,0,0,0,0,0,0,0,0,0,0,0,0,0,0,0,0,0,0,0,0,0,0,0,0,0,0,0,0,0,0,0,0,0,0,0,0,0,0,0,0,0,0,0],"sum_hessian":[1.01568396E3,8.2006195E2,1.9562204E2,6.346766E2,1.8538533E2,1.4328133E2,5.2340717E1,5.4300793E2,9.166865E1,1.4758842E2,3.7796906E1,1.28568E2,1.4713322E1,3.8182034E1,1.4158686E1,2.0787086E2,3.351371E2,2.2594269E1,6.907438E1,8.532682E1,6.2261604E1,1.2750413E2,1.0638728E0,2.248816E0,1.2464505E1,2.485679E1,1.3325243E1,1.2969826E2,7.817261E1,1.7197899E2,1.631581E2,1.7799784E1,4.7944846E0,6.6394325E1,2.680052E0,6.224654E1,2.3080282E1,5.3475246E1,8.78636E0,1.2580576E2,1.6983619E0,1.1379277E0,1.1108884E0,1.9065953E0,1.055791E1,1.6303747E1,8.553043E0,2.1200862E0,1.1205156E1],"tree_param":{"num_deleted":"0","num_feature":"43","num_nodes":"49","size_leaf_vector":"1"}},{"base_weights":[-8.8924775E-3,2.1264248E-1,-9.6244353E-1,4.31402E-1,-5.49559E-1,-1.0470964E0,-7.183915E-1,2.7180928E-1,1.2201117E0,-3.93765E-1,-5.735265E-2,-1.077045E0,-7.3565185E-1,-4.6567398E-1,-9.7475356E-1,6.560821E-1,-3.1926107E-2,1.3394632E0,9.818482E-2,-7.446198E-1,-6.1725583E-2,-1.0832565E0,-9.048294E-3,1.1360277E-2,-8.318443E-1,-6.763706E-1,1.8651558E-2,-3.7296614E-1,-1.0287383E0,4.9908135E-2,-1.3912821E-3,-2.5080917E-2,1.3334242E-2,7.040189E-2,3.1369355E-2,2.3094166E-2,-2.3232115E-2,-3.9293498E-2,2.519997E-2,9.597343E-3,-3.733363E-2,-5.447135E-2,-1.9881515E-2,-4.7057405E-2,1.1694616E-2,8.6382014E-4,-4.2480998E-2,2.2077756E-2,-4.2527657E-2,-3.7501704E-2,1.3056864E-2,-5.3137284E-2,-1.4812275E-2],"categories":[],"categories_nodes":[],"categories_segments":[],"categories_sizes":[],"default_left":[0,0,0,0,0,0,0,0,0,0,0,0,0,0,0,0,0,0,0,0,0,0,0,0,0,0,0,0,0,0,0,0,0,0,0,0,0,0,0,0,0,0,0,0,0,0,0,0,0,0,0,0,0],"id":14,"left_children":[1,3,5,7,9,11,13,15,17,19,-1,21,23,25,27,29,31,33,35,37,39,41,-1,-1,43,45,47,49,51,-1,-1,-1,-1,-1,-1,-1,-1,-1,-1,-1,-1,-1,-1,-1,-1,-1,-1,-1,-1,-1,-1,-1,-1],"loss_changes":[2.1304369E2,1.3669884E2,3.175827E0,7.9781746E1,1.6578495E1,5.039673E-1,2.924778E0,6.1955685E1,1.4172867E1,1.7036783E1,0E0,4.9768066E-1,1.6104078E0,2.8879323E0,4.2764664E-1,5.4844498E1,4.183603E1,3.8275452E0,2.5380802E0,4.063671E0,1.3422937E1,8.961487E-2,0E0,0E0,1.870471E0,2.3775082E0,3.8731706E0,1.0625165E0,2.4189186E-1,0E0,0E0,0E0,0E0,0E0,0E0,0E0,0E0,0E0,0E0,0E0,0E0,0E0,0E0,0E0,0E0,0E0,0E0,0E0,0E0,0E0,0E0,0E0,0E0],"parents":[2147483647,0,0,1,1,2,2,3,3,4,4,5,5,6,6,7,7,8,8,9,9,11,11,12,12,13,13,14,14,15,15,16,16,17,17,18,18,19,19,20,20,21,21,24,24,25,25,26,26,27,27,28,28],"right_children":[2,4,6,8,10,12,14,16,18,20,-1,22,24,26,28,30,32,34,36,38,40,42,-1,-1,44,46,48,50,52,-1,-1,-1,-1,-1,-1,-1,-1,-1,-1,-1,-1,-1,-1,-1,-1,-1,-1,-1,-1,-1,-1,-1,-1],"split_conditions":[1E0,1E0,9.195E1,6.5E1,1E0,5.3323E4,2E0,8E0,3E0,1E0,-5.735265E-2,8E1,5.4431E4,3.0614E4,9.43E1,1E0,7E1,5E1,7E0,1E0,2E0,1.4E2,-9.048294E-3,1.1360277E-2,6E1,1.2E1,6.4E1,1.50876E3,4.731E1,4.9908135E-2,-1.3912821E-3,-2.5080917E-2,1.3334242E-2,7.040189E-2,3.1369355E-2,2.3094166E-2,-2.3232115E-2,-3.9293498E-2,2.519997E-2,9.597343E-3,-3.733363E-2,-5.447135E-2,-1.9881515E-2,-4.7057405E-2,1.1694616E-2,8.6382014E-4,-4.2480998E-2,2.2077756E-2,-4.2527657E-2,-3.7501704E-2,1.3056864E-2,-5.3137284E-2,-1.4812275E-2],"split_indices":[40,39,25,1,5,7,9,10,9,21,0,1,7,7,25,41,25,10,9,22,9,28,0,0,28,15,1,29,12,0,0,0,0,0,0,0,0,0,0,0,0,0,0,0,0,0,0,0,0,0,0,0,0],"split_type":[0,0,0,0,0,0,0,0,0,0,0,0,0,0,0,0,0,0,0,0,0,0,0,0,0,0,0,0,0,0,0,0,0,0,0,0,0,0,0,0,0,0,0,0,0,0,0,0,0,0,0,0,0],"sum_hessian":[1.00654645E3,8.174162E2,1.8913025E2,6.354653E2,1.8195094E2,1.3797961E2,5.1150627E1,5.2963916E2,1.0582606E2,1.45636E2,3.6314938E1,1.23632866E2,1.4346752E1,2.717673E1,2.3973896E1,2.33308E2,2.9633118E2,9.547542E1,1.0350642E1,7.020753E1,7.542848E1,1.2257431E2,1.058556E0,1.1793925E0,1.316736E1,1.8661762E1,8.514966E0,2.6246526E0,2.1349245E1,1.5521315E2,7.809485E1,1.1490871E2,1.8142247E2,8.619707E1,9.27835E0,6.3965483E0,3.954094E0,6.832104E1,1.8864849E0,5.556833E1,1.9860155E1,1.2089731E2,1.6770048E0,1.2048544E1,1.1188161E0,3.9094758E0,1.4752287E1,6.059011E0,2.455955E0,1.5312643E0,1.0933882E0,1.997118E1,1.3780639E0],"tree_param":{"num_deleted":"0","num_feature":"43","num_nodes":"53","size_leaf_vector":"1"}},{"base_weights":[-9.048872E-3,2.3836152E-1,-8.200184E-1,3.886046E-1,-8.075345E-1,-2.4950066E-1,-9.336099E-1,-4.8668316E-1,5.3656137E-1,-1.0084144E0,-4.5918965E-1,-5.889144E-1,1.0486939E0,-9.667985E-1,3.2115966E-1,3.3756045E-1,-7.825772E-1,1.0358231E0,3.1214398E-1,-1.0611252E0,-3.234143E-1,-2.747664E-1,-5.2919753E-2,-8.9310724E-1,-4.9490605E-2,1.6386243E0,-4.0776264E-2,-9.8269325E-1,1.7660616E-2,-3.9407354E-2,1.1560684E0,5.3149946E-2,-1.0273686E-2,-4.277401E-2,-1.1194442E-2,2.9965986E-2,6.17581E-2,2.3515632E-3,5.030587E-2,-5.3825945E-2,-1.9857181E-2,1.6727788E-2,-4.2802166E-2,-3.0577151E-2,1.25943795E-2,-5.010719E-2,-3.733141E-5,2.7813403E-2,-3.867915E-2,1.91138E-2,9.721076E-2,-5.432054E-2,-3.5672706E-2,8.788519E-2,-8.095525E-3],"categories":[],"categories_nodes":[],"categories_segments":[],"categories_sizes":[],"default_left":[0,0,0,0,0,0,0,0,0,0,0,0,0,0,0,0,0,0,0,0,0,0,0,0,0,0,0,0,0,0,0,0,0,0,0,0,0,0,0,0,0,0,0,0,0,0,0,0,0,0,0,0,0,0,0],"id":15,"left_children":[1,3,5,7,9,11,13,15,17,19,21,23,25,27,29,31,33,35,37,39,41,43,-1,45,47,49,-1,51,-1,-1,53,-1,-1,-1,-1,-1,-1,-1,-1,-1,-1,-1,-1,-1,-1,-1,-1,-1,-1,-1,-1,-1,-1,-1,-1],"loss_changes":[2.003836E2,1.20568436E2,1.4896606E1,8.700706E1,6.2859955E0,1.8299423E1,8.403198E0,2.4013723E1,6.392769E1,1.8353767E0,3.8103824E0,5.280835E0,1.087876E1,4.3245544E0,6.2442465E0,1.0627068E1,2.7392654E0,1.4695602E1,7.300252E1,1.4062881E-1,2.3013453E0,5.426881E0,0E0,2.0125656E0,6.0273185E0,1.9148598E0,0E0,4.4630585E0,0E0,0E0,3.2112145E0,0E0,0E0,0E0,0E0,0E0,0E0,0E0,0E0,0E0,0E0,0E0,0E0,0E0,0E0,0E0,0E0,0E0,0E0,0E0,0E0,0E0,0E0,0E0,0E0],"parents":[2147483647,0,0,1,1,2,2,3,3,4,4,5,5,6,6,7,7,8,8,9,9,10,10,11,11,12,12,13,13,14,14,15,15,16,16,17,17,18,18,19,19,20,20,21,21,23,23,24,24,25,25,27,27,30,30],"right_children":[2,4,6,8,10,12,14,16,18,20,22,24,26,28,30,32,34,36,38,40,42,44,-1,46,48,50,-1,52,-1,-1,54,-1,-1,-1,-1,-1,-1,-1,-1,-1,-1,-1,-1,-1,-1,-1,-1,-1,-1,-1,-1,-1,-1,-1,-1],"split_conditions":[2E0,1E0,1.4E1,1E0,4.44975E3,8.015E1,4.87E1,2.44E1,6E0,5.3323E4,1E0,2.1E1,6E0,8E1,8.135E1,1.4697E4,1E0,1E0,1E0,3.483E1,2.681E1,1E0,-5.2919753E-2,1E0,3.459E2,1E1,-4.0776264E-2,9.34E1,1.7660616E-2,-3.9407354E-2,7E0,5.3149946E-2,-1.0273686E-2,-4.277401E-2,-1.1194442E-2,2.9965986E-2,6.17581E-2,2.3515632E-3,5.030587E-2,-5.3825945E-2,-1.9857181E-2,1.6727788E-2,-4.2802166E-2,-3.0577151E-2,1.25943795E-2,-5.010719E-2,-3.733141E-5,2.7813403E-2,-3.867915E-2,1.91138E-2,9.721076E-2,-5.432054E-2,-3.5672706E-2,8.788519E-2,-8.095525E-3],"split_indices":[9,40,10,14,26,25,12,26,10,7,5,15,9,1,25,7,8,24,8,27,12,4,0,42,26,15,0,25,0,0,9,0,0,0,0,0,0,0,0,0,0,0,0,0,0,0,0,0,0,0,0,0,0,0,0],"split_type":[0,0,0,0,0,0,0,0,0,0,0,0,0,0,0,0,0,0,0,0,0,0,0,0,0,0,0,0,0,0,0,0,0,0,0,0,0,0,0,0,0,0,0,0,0,0,0,0,0,0,0,0,0,0,0],"sum_hessian":[9.9673645E2,7.642771E2,2.3245938E2,6.6882825E2,9.5448814E1,3.9128975E1,1.9333041E2,9.637864E1,5.7244965E2,5.9336426E1,3.6112392E1,3.1452152E1,7.6768246E0,1.8857219E2,4.7582245E0,2.5422054E1,7.095659E1,1.7639896E2,3.9605066E2,5.458688E1,4.749546E0,2.8728802E1,7.3835917E0,1.969183E1,1.1760323E1,5.9233875E0,1.7534374E0,1.8658104E2,1.991154E0,2.0673866E0,2.6908379E0,1.0473288E1,1.4948767E1,6.2296333E1,8.660254E0,5.6557793E1,1.1984116E2,2.8734607E2,1.087046E2,5.2742783E1,1.8440944E0,2.291132E0,2.458414E0,1.7424967E1,1.1303836E1,1.7438066E1,2.253763E0,6.5295916E0,5.2307305E0,1.5992935E0,4.324094E0,1.3250264E2,5.4078392E1,1.6184202E0,1.0724177E0],"tree_param":{"num_deleted":"0","num_feature":"43","num_nodes":"55","size_leaf_vector":"1"}},{"base_weights":[-9.0644695E-3,1.9391105E-1,-9.345973E-1,3.955281E-1,-5.282236E-1,-1.0234898E0,-6.861642E-1,5.3281456E-1,-4.3267602E-1,-3.7573454E-1,-5.6678083E-2,-1.0554589E0,-7.006913E-1,-5.14562E-1,-5.4784637E-2,1.4708145E-1,8.020356E-1,2.1011141E-1,-6.523072E-1,-5.5514586E-1,2.2229525E-1,-1.0621618E0,-7.831185E-3,4.7385972E-2,-8.37263E-1,-2.6535988E-1,-9.397343E-1,1.9528633E-2,-1.4586224E-2,5.635202E-2,2.4337936E-2,9.397751E-5,4.215171E-2,-3.6301658E-2,4.169251E-2,-4.5374285E-2,-2.0146089E-2,2.406965E-2,-4.306263E-2,-5.3439654E-2,-1.8478991E-2,-3.228597E-2,3.5425644E-2,-3.3788949E-3,-4.8115235E-2,5.5590426E-3,-4.7147464E-2,-7.389415E-3,-5.3472776E-2],"categories":[],"categories_nodes":[],"categories_segments":[],"categories_sizes":[],"default_left":[0,0,0,0,0,0,0,0,0,0,0,0,0,0,0,0,0,0,0,0,0,0,0,0,0,0,0,0,0,0,0,0,0,0,0,0,0,0,0,0,0,0,0,0,0,0,0,0,0],"id":16,"left_children":[1,3,5,7,9,11,13,15,17,19,-1,21,23,25,-1,27,29,31,33,35,37,39,-1,41,43,45,47,-1,-1,-1,-1,-1,-1,-1,-1,-1,-1,-1,-1,-1,-1,-1,-1,-1,-1,-1,-1,-1,-1],"loss_changes":[1.860661E2,1.184815E2,3.2317963E0,7.250045E1,1.5979778E1,5.933533E-1,2.9484806E0,5.6549606E1,1.2974461E1,1.5515959E1,0E0,5.298004E-1,1.5327687E0,3.6821241E0,0E0,2.4210604E1,3.235875E1,3.150137E0,8.058014E0,5.5685577E0,9.909701E0,1.3095093E-1,0E0,1.9250278E0,1.1295137E0,6.4291167E0,1.2101564E0,0E0,0E0,0E0,0E0,0E0,0E0,0E0,0E0,0E0,0E0,0E0,0E0,0E0,0E0,0E0,0E0,0E0,0E0,0E0,0E0,0E0,0E0],"parents":[2147483647,0,0,1,1,2,2,3,3,4,4,5,5,6,6,7,7,8,8,9,9,11,11,12,12,13,13,15,15,16,16,17,17,18,18,19,19,20,20,21,21,23,23,24,24,25,25,26,26],"right_children":[2,4,6,8,10,12,14,16,18,20,-1,22,24,26,-1,28,30,32,34,36,38,40,-1,42,44,46,48,-1,-1,-1,-1,-1,-1,-1,-1,-1,-1,-1,-1,-1,-1,-1,-1,-1,-1,-1,-1,-1,-1],"split_conditions":[1E0,1E0,9.195E1,1E0,1E0,5.3323E4,1E0,1E0,5E0,9.995E1,-5.6678083E-2,8E1,5.5062E4,6.4E1,-5.4784637E-2,1.108E2,2.384E2,4.0346E4,7E1,4E0,3E0,1.4E2,-7.831185E-3,3.3E1,1E0,7.2E1,7E0,1.9528633E-2,-1.4586224E-2,5.635202E-2,2.4337936E-2,9.397751E-5,4.215171E-2,-3.6301658E-2,4.169251E-2,-4.5374285E-2,-2.0146089E-2,2.406965E-2,-4.306263E-2,-5.3439654E-2,-1.8478991E-2,-3.228597E-2,3.5425644E-2,-3.3788949E-3,-4.8115235E-2,5.5590426E-3,-4.7147464E-2,-7.389415E-3,-5.3472776E-2],"split_indices":[40,39,25,5,5,7,5,37,10,25,0,1,7,1,0,29,29,7,1,15,9,28,0,10,11,10,15,0,0,0,0,0,0,0,0,0,0,0,0,0,0,0,0,0,0,0,0,0,0],"split_type":[0,0,0,0,0,0,0,0,0,0,0,0,0,0,0,0,0,0,0,0,0,0,0,0,0,0,0,0,0,0,0,0,0,0,0,0,0,0,0,0,0,0,0,0,0,0,0,0,0],"sum_hessian":[9.884835E2,8.1134143E2,1.7714209E2,6.346125E2,1.7672896E2,1.2816371E2,4.897837E1,5.4468066E2,8.993181E1,1.4246237E2,3.4266594E1,1.14549355E2,1.36143675E1,3.6105694E1,1.2872675E1,2.2452837E2,3.2015228E2,2.2913874E1,6.701794E1,1.0964126E2,3.2821106E1,1.1352107E2,1.028278E0,2.2025952E0,1.1411773E1,2.3787487E1,1.2318208E1,1.4447166E2,8.0056694E1,1.5637627E2,1.6377603E2,1.7996113E1,4.9177594E0,6.4337715E1,2.680222E0,3.1581293E1,7.805997E1,2.6935919E1,5.8851867E0,1.11906395E2,1.6146752E0,1.0866692E0,1.115926E0,1.8101239E0,9.601648E0,1.5827797E1,7.9596906E0,2.0348372E0,1.028337E1],"tree_param":{"num_deleted":"0","num_feature":"43","num_nodes":"49","size_leaf_vector":"1"}},{"base_weights":[-9.276823E-3,2.2058894E-1,-7.937732E-1,3.5505542E-1,-7.729339E-1,-2.4074829E-1,-9.0795267E-1,-4.6355277E-1,4.9013987E-1,-9.834149E-1,-4.2066228E-1,3.335238E-1,-9.51567E-1,-9.420755E-1,3.309492E-1,3.0161205E-1,-7.5041705E-1,6.6195023E-1,-9.269906E-2,-1.0391275E0,-2.9654366E-1,-1.8869963E-1,-9.017054E-1,-1.9104534E-1,1.503244E0,-3.2984057E-1,-1.0323205E0,-9.585122E-1,1.730647E-2,-3.8177263E-2,1.1072236E0,4.8940703E-2,-1.0644442E-2,-4.124321E-2,-9.339697E-3,5.0060112E-2,2.1214226E-2,-1.7202025E-2,2.942287E-2,-5.2777853E-2,-1.8166278E-2,1.6770124E-2,-4.1574217E-2,4.9560368E-2,-1.6030077E-2,-4.8495308E-2,-5.5973954E-3,-3.6439024E-2,1.9908926E-2,1.7307203E-2,8.904905E-2,-3.6030587E-2,1.3275272E-2,-5.3773623E-2,-1.49645405E-2,-5.330443E-2,-3.429466E-2,8.3039686E-2,-7.5583267E-3],"categories":[],"categories_nodes":[],"categories_segments":[],"categories_sizes":[],"default_left":[0,0,0,0,0,0,0,0,0,0,0,0,0,0,0,0,0,0,0,0,0,0,0,0,0,0,0,0,0,0,0,0,0,0,0,0,0,0,0,0,0,0,0,0,0,0,0,0,0,0,0,0,0,0,0,0,0,0,0],"id":17,"left_children":[1,3,5,7,9,11,13,15,17,19,21,23,25,27,29,31,33,35,37,39,41,43,45,47,49,51,53,55,-1,-1,57,-1,-1,-1,-1,-1,-1,-1,-1,-1,-1,-1,-1,-1,-1,-1,-1,-1,-1,-1,-1,-1,-1,-1,-1,-1,-1,-1,-1],"loss_changes":[1.7695909E2,1.01669205E2,1.3823029E1,7.422571E1,6.318115E0,1.64071E1,8.088577E0,2.1144245E1,5.7628433E1,1.8381004E0,3.813964E0,1.4119254E1,5.568619E-1,4.12796E0,5.6636033E0,9.510897E0,2.7663345E0,3.5383957E1,2.2760038E1,1.8805695E-1,2.1744092E0,4.2636395E0,5.028238E-1,5.5024214E0,1.6627216E0,1.0112053E0,1.636467E-1,4.4683228E0,0E0,0E0,2.8465657E0,0E0,0E0,0E0,0E0,0E0,0E0,0E0,0E0,0E0,0E0,0E0,0E0,0E0,0E0,0E0,0E0,0E0,0E0,0E0,0E0,0E0,0E0,0E0,0E0,0E0,0E0,0E0,0E0],"parents":[2147483647,0,0,1,1,2,2,3,3,4,4,5,5,6,6,7,7,8,8,9,9,10,10,11,11,12,12,13,13,14,14,15,15,16,16,17,17,18,18,19,19,20,20,21,21,22,22,23,23,24,24,25,25,26,26,27,27,30,30],"right_children":[2,4,6,8,10,12,14,16,18,20,22,24,26,28,30,32,34,36,38,40,42,44,46,48,50,52,54,56,-1,-1,58,-1,-1,-1,-1,-1,-1,-1,-1,-1,-1,-1,-1,-1,-1,-1,-1,-1,-1,-1,-1,-1,-1,-1,-1,-1,-1,-1,-1],"split_conditions":[2E0,1E0,1.4E1,1E0,4.44975E3,6E0,4.87E1,2.44E1,1E0,5.3323E4,7.2E1,8.015E1,2.5E1,8E1,8.135E1,1.4697E4,1E0,8E0,1E0,3.483E1,2.681E1,7E0,7.1E1,1.8E1,1E1,4.7326E2,7.6E1,9.34E1,1.730647E-2,-3.8177263E-2,7E0,4.8940703E-2,-1.0644442E-2,-4.124321E-2,-9.339697E-3,5.0060112E-2,2.1214226E-2,-1.7202025E-2,2.942287E-2,-5.2777853E-2,-1.8166278E-2,1.6770124E-2,-4.1574217E-2,4.9560368E-2,-1.6030077E-2,-4.8495308E-2,-5.5973954E-3,-3.6439024E-2,1.9908926E-2,1.7307203E-2,8.904905E-2,-3.6030587E-2,1.3275272E-2,-5.3773623E-2,-1.49645405E-2,-5.330443E-2,-3.429466E-2,8.3039686E-2,-7.5583267E-3],"split_indices":[9,40,10,14,26,9,12,26,16,7,10,25,1,1,25,7,8,10,4,27,12,15,1,15,15,30,1,25,0,0,9,0,0,0,0,0,0,0,0,0,0,0,0,0,0,0,0,0,0,0,0,0,0,0,0,0,0,0,0],"split_type":[0,0,0,0,0,0,0,0,0,0,0,0,0,0,0,0,0,0,0,0,0,0,0,0,0,0,0,0,0,0,0,0,0,0,0,0,0,0,0,0,0,0,0,0,0,0,0,0,0,0,0,0,0,0,0,0,0,0,0],"sum_hessian":[9.7934235E2,7.579684E2,2.2137396E2,6.6817773E2,8.979063E1,3.8415966E1,1.8295801E2,9.4298676E1,5.73879E2,5.5085564E1,3.4705067E1,2.1542511E1,1.6873455E1,1.7828706E2,4.670938E0,2.5699074E1,6.85996E1,4.431197E2,1.3075938E2,5.0478386E1,4.607178E0,2.4353767E1,1.0351299E1,1.5450362E1,6.092148E0,2.5241783E0,1.43492775E1,1.762936E2,1.9934639E0,1.9450073E0,2.7259305E0,1.070559E1,1.4993483E1,6.0186283E1,8.413317E0,1.8122307E2,2.618966E2,9.587658E1,3.4882797E1,4.873173E1,1.7466527E0,2.2830877E0,2.3240902E0,1.7937083E0,2.2560059E1,9.318481E0,1.0328183E0,7.954296E0,7.496066E0,1.6140475E0,4.4781003E0,1.3968866E0,1.1272916E0,1.3110337E1,1.2389406E0,1.2432428E2,5.196932E1,1.6710527E0,1.0548779E0],"tree_param":{"num_deleted":"0","num_feature":"43","num_nodes":"59","size_leaf_vector":"1"}},{"base_weights":[-9.277017E-3,2.0994519E-1,-7.7661157E-1,3.371828E-1,-7.56971E-1,-2.32016E-1,-8.912674E-1,1.7066854E-1,9.5654637E-1,-9.7134703E-1,-4.0612277E-1,3.2038563E-1,-9.345385E-1,-9.2564344E-1,3.2133573E-1,4.4716048E-1,-2.6558882E-1,1.3007301E0,-3.2498893E-1,-1.0284247E0,-2.88643E-1,-2.2399105E-1,-5.1228493E-2,-1.8372658E-1,1.4229147E0,-1.0463588E0,-4.216629E-1,-9.423129E-1,3.329767E-1,-3.7621845E-2,1.0606374E0,-1.8276293E-2,3.2027584E-2,-3.4210924E-2,2.3307663E-3,7.5935245E-2,3.5841662E-2,4.8300873E-2,-3.7289523E-2,-5.2263707E-2,-1.7745443E-2,-4.24382E-2,1.6181177E-2,-2.8439868E-2,1.4989056E-2,5.9596278E-2,-1.9998442E-2,1.6754579E-2,8.3919786E-2,-5.5372994E-2,-1.1536695E-2,-4.539649E-2,2.1942433E-2,-5.262695E-2,-3.336082E-2,5.7876665E-2,-3.2844644E-2,7.9119675E-2,-7.382344E-3],"categories":[],"categories_nodes":[],"categories_segments":[],"categories_sizes":[],"default_left":[0,0,0,0,0,0,0,0,0,0,0,0,0,0,0,0,0,0,0,0,0,0,0,0,0,0,0,0,0,0,0,0,0,0,0,0,0,0,0,0,0,0,0,0,0,0,0,0,0,0,0,0,0,0,0,0,0,0,0],"id":18,"left_children":[1,3,5,7,9,11,13,15,17,19,21,23,25,27,29,31,33,35,37,39,41,43,-1,45,47,49,51,53,55,-1,57,-1,-1,-1,-1,-1,-1,-1,-1,-1,-1,-1,-1,-1,-1,-1,-1,-1,-1,-1,-1,-1,-1,-1,-1,-1,-1,-1,-1],"loss_changes":[1.636553E2,9.3354645E1,1.3291809E1,6.8876495E1,6.2474327E0,1.5414846E1,7.7269287E0,6.390378E1,6.2890213E1,1.8111229E0,3.7366843E0,1.2794291E1,5.567064E-1,3.9554749E0,5.2877913E0,5.116239E1,2.6924576E1,1.3145691E1,1.7443697E1,1.9113159E-1,2.1827984E0,5.314117E0,0E0,5.343321E0,1.4357023E0,4.2277622E-1,2.4026265E0,4.500168E0,3.215291E0,0E0,2.6069055E0,0E0,0E0,0E0,0E0,0E0,0E0,0E0,0E0,0E0,0E0,0E0,0E0,0E0,0E0,0E0,0E0,0E0,0E0,0E0,0E0,0E0,0E0,0E0,0E0,0E0,0E0,0E0,0E0],"parents":[2147483647,0,0,1,1,2,2,3,3,4,4,5,5,6,6,7,7,8,8,9,9,10,10,11,11,12,12,13,13,14,14,15,15,16,16,17,17,18,18,19,19,20,20,21,21,23,23,24,24,25,25,26,26,27,27,28,28,30,30],"right_children":[2,4,6,8,10,12,14,16,18,20,22,24,26,28,30,32,34,36,38,40,42,44,-1,46,48,50,52,54,56,-1,58,-1,-1,-1,-1,-1,-1,-1,-1,-1,-1,-1,-1,-1,-1,-1,-1,-1,-1,-1,-1,-1,-1,-1,-1,-1,-1,-1,-1],"split_conditions":[2E0,1E0,1.4E1,1E0,4.44975E3,6E0,4.87E1,1.7E1,1E0,5.3323E4,1E0,8.015E1,1E0,8E1,8.135E1,1E0,7.49E1,4.4E1,5.754E1,3.483E1,4.9E1,1E0,-5.1228493E-2,2E0,1E1,5.8E1,3.51E1,9.34E1,1E0,-3.7621845E-2,7E0,-1.8276293E-2,3.2027584E-2,-3.4210924E-2,2.3307663E-3,7.5935245E-2,3.5841662E-2,4.8300873E-2,-3.7289523E-2,-5.2263707E-2,-1.7745443E-2,-4.24382E-2,1.6181177E-2,-2.8439868E-2,1.4989056E-2,5.9596278E-2,-1.9998442E-2,1.6754579E-2,8.3919786E-2,-5.5372994E-2,-1.1536695E-2,-4.539649E-2,2.1942433E-2,-5.262695E-2,-3.336082E-2,5.7876665E-2,-3.2844644E-2,7.9119675E-2,-7.382344E-3],"split_indices":[9,40,10,8,26,9,12,10,5,7,5,25,37,1,25,14,25,10,29,27,10,4,0,10,15,15,12,25,20,0,9,0,0,0,0,0,0,0,0,0,0,0,0,0,0,0,0,0,0,0,0,0,0,0,0,0,0,0,0],"split_type":[0,0,0,0,0,0,0,0,0,0,0,0,0,0,0,0,0,0,0,0,0,0,0,0,0,0,0,0,0,0,0,0,0,0,0,0,0,0,0,0,0,0,0,0,0,0,0,0,0,0,0,0,0,0,0,0,0,0,0],"sum_hessian":[9.709141E2,7.5573285E2,2.1518129E2,6.684253E2,8.730756E1,3.7949814E1,1.7723148E2,5.278025E2,1.4062277E2,5.3096104E1,3.4211464E1,2.15493E1,1.6400515E1,1.7257578E2,4.6556964E0,3.230404E2,2.047621E2,1.1083947E2,2.9783293E1,4.8532158E1,4.5639467E0,2.748064E1,6.7308226E0,1.5359702E1,6.189597E0,1.2610842E1,3.789674E0,1.7056805E2,2.0077255E0,1.8911685E0,2.7645278E0,6.1924686E1,2.6111572E2,8.696308E1,1.1779903E2,7.954392E1,3.1295546E1,7.0029106E0,2.2780382E1,4.6809166E1,1.7229933E0,2.1817484E0,2.3821986E0,1.65196E1,1.096104E1,1.4735483E0,1.3886153E1,1.6168311E0,4.572766E0,1.1399094E1,1.2117475E0,2.3861682E0,1.4035057E0,1.19757385E2,5.081066E1,1.0029191E0,1.0048064E0,1.7145414E0,1.0499864E0],"tree_param":{"num_deleted":"0","num_feature":"43","num_nodes":"59","size_leaf_vector":"1"}},{"base_weights":[-9.234473E-3,1.6954185E-1,-8.948753E-1,3.496016E-1,-4.9869075E-1,-9.906782E-1,-6.3978314E-1,2.0388362E-1,1.0857399E0,-3.516532E-1,-5.574872E-2,-1.0258844E0,-6.5135276E-1,-3.789376E-1,-9.195117E-1,4.0649042E-1,-2.4580126E-1,1.1891614E0,1.0983922E-1,-6.8538177E-1,-5.622826E-2,-5.165856E-2,-1.6090257E-2,1.3318091E-2,-7.557511E-1,-4.006015E-2,-7.0797145E-1,-2.6958022E-1,-9.833927E-1,4.2140614E-2,5.6627067E-3,-6.970501E-3,-4.3058436E-2,6.0876667E-2,-5.2982364E-3,-9.805473E-3,3.2794613E-2,-3.6445174E-2,2.5898946E-2,6.8905177E-3,-3.2959186E-2,-4.383683E-2,1.3773142E-2,1.1788762E-2,-4.3845892E-2,-5.5373245E-4,-4.7268506E-2,1.7289242E-2,-3.4197118E-2,-5.124067E-2,-1.1343111E-2],"categories":[],"categories_nodes":[],"categories_segments":[],"categories_sizes":[],"default_left":[0,0,0,0,0,0,0,0,0,0,0,0,0,0,0,0,0,0,0,0,0,0,0,0,0,0,0,0,0,0,0,0,0,0,0,0,0,0,0,0,0,0,0,0,0,0,0,0,0,0,0],"id":19,"left_children":[1,3,5,7,9,11,13,15,17,19,-1,21,23,25,27,29,31,33,35,37,39,-1,-1,-1,41,43,45,47,49,-1,-1,-1,-1,-1,-1,-1,-1,-1,-1,-1,-1,-1,-1,-1,-1,-1,-1,-1,-1,-1,-1],"loss_changes":[1.5260036E2,9.66686E1,3.3221893E0,6.7607704E1,1.507069E1,7.158432E-1,3.0823689E0,4.8303455E1,1.0391739E1,1.3688372E1,0E0,1.971283E-1,1.5071335E0,2.8742466E0,6.4777756E-1,4.6619545E1,1.0679676E1,3.5890656E0,1.9816293E0,3.7967968E0,8.858863E0,0E0,0E0,0E0,1.8008018E0,3.411687E0,2.1647305E0,1.0895149E0,3.8301468E-1,0E0,0E0,0E0,0E0,0E0,0E0,0E0,0E0,0E0,0E0,0E0,0E0,0E0,0E0,0E0,0E0,0E0,0E0,0E0,0E0,0E0,0E0],"parents":[2147483647,0,0,1,1,2,2,3,3,4,4,5,5,6,6,7,7,8,8,9,9,11,11,12,12,13,13,14,14,15,15,16,16,17,17,18,18,19,19,20,20,24,24,25,25,26,26,27,27,28,28],"right_children":[2,4,6,8,10,12,14,16,18,20,-1,22,24,26,28,30,32,34,36,38,40,-1,-1,-1,42,44,46,48,50,-1,-1,-1,-1,-1,-1,-1,-1,-1,-1,-1,-1,-1,-1,-1,-1,-1,-1,-1,-1,-1,-1],"split_conditions":[1E0,1E0,9.195E1,6.5E1,1E0,5.3323E4,2E0,1E0,3E0,1E0,-5.574872E-2,1.4E2,5.4431E4,4.9E1,9.43E1,7E0,2E0,6.1519E3,9.995E1,1E0,2E0,-5.165856E-2,-1.6090257E-2,1.3318091E-2,6E1,1E0,1.2E1,3.499E3,1.093948E4,4.2140614E-2,5.6627067E-3,-6.970501E-3,-4.3058436E-2,6.0876667E-2,-5.2982364E-3,-9.805473E-3,3.2794613E-2,-3.6445174E-2,2.5898946E-2,6.8905177E-3,-3.2959186E-2,-4.383683E-2,1.3773142E-2,1.1788762E-2,-4.3845892E-2,-5.5373245E-4,-4.7268506E-2,1.7289242E-2,-3.4197118E-2,-5.124067E-2,-1.1343111E-2],"split_indices":[40,39,25,1,5,7,9,41,9,21,0,28,7,1,25,10,9,26,25,22,9,0,0,0,28,5,15,7,30,0,0,0,0,0,0,0,0,0,0,0,0,0,0,0,0,0,0,0,0,0,0],"split_type":[0,0,0,0,0,0,0,0,0,0,0,0,0,0,0,0,0,0,0,0,0,0,0,0,0,0,0,0,0,0,0,0,0,0,0,0,0,0,0,0,0,0,0,0,0,0,0,0,0,0,0],"sum_hessian":[9.61844E2,8.009683E2,1.6087569E2,6.313293E2,1.6963907E2,1.1485639E2,4.601929E1,5.2807434E2,1.0325493E2,1.3822978E2,3.1409286E1,1.02226715E2,1.262968E1,2.503186E1,2.0987432E1,3.641166E2,1.6395772E2,9.316337E1,1.009156E1,6.428728E1,7.39425E1,1.0071694E2,1.5097696E0,1.1315327E0,1.1498147E1,1.2884081E1,1.2147779E1,2.3453786E0,1.8642054E1,1.4559857E2,2.1851804E2,1.4083519E2,2.3122526E1,9.1224846E1,1.9385225E0,6.878473E0,3.2130876E0,6.2423885E1,1.8633945E0,5.6523857E1,1.7418644E1,1.0424868E1,1.0732791E0,1.0230336E1,2.6537442E0,3.3526227E0,8.7951565E0,1.0103778E0,1.3350009E0,1.7338152E1,1.303901E0],"tree_param":{"num_deleted":"0","num_feature":"43","num_nodes":"51","size_leaf_vector":"1"}},{"base_weights":[-9.353233E-3,1.9351444E-1,-7.488017E-1,3.0811363E-1,-7.247287E-1,-2.1899447E-1,-8.6437273E-1,1.4903082E-1,8.98411E-1,-9.477806E-1,-3.7398297E-1,3.1071964E-1,-9.146063E-1,-8.9971507E-1,3.3230454E-1,4.0437895E-1,-2.5814253E-1,1.2161459E0,-3.0886978E-1,-1.0081025E0,-2.6770177E-1,-1.3928582E-1,-8.7304455E-1,-1.6922452E-1,1.3318129E0,-2.984709E-1,-9.981214E-1,-1.0052096E0,-6.4199704E-1,-3.654135E-2,1.0290811E0,-1.7789781E-2,2.9177127E-2,-3.2987304E-2,1.7270361E-3,7.109811E-2,3.344569E-2,4.509215E-2,-3.5901673E-2,-5.1304836E-2,-1.623399E-2,-4.1649725E-2,1.6778937E-2,-2.34555E-2,1.8079698E-2,-8.1552565E-3,-4.7110915E-2,-3.492016E-2,1.9447582E-2,1.498158E-2,7.8692675E-2,-3.475167E-2,1.3104004E-2,-1.3868093E-2,-5.2441318E-2,-5.162976E-2,4.2158917E-2,3.0488862E-2,-3.5858385E-2,7.573425E-2,-6.7126052E-3],"categories":[],"categories_nodes":[],"categories_segments":[],"categories_sizes":[],"default_left":[0,0,0,0,0,0,0,0,0,0,0,0,0,0,0,0,0,0,0,0,0,0,0,0,0,0,0,0,0,0,0,0,0,0,0,0,0,0,0,0,0,0,0,0,0,0,0,0,0,0,0,0,0,0,0,0,0,0,0,0,0],"id":20,"left_children":[1,3,5,7,9,11,13,15,17,19,21,23,25,27,29,31,33,35,37,39,41,43,45,47,49,51,53,55,57,-1,59,-1,-1,-1,-1,-1,-1,-1,-1,-1,-1,-1,-1,-1,-1,-1,-1,-1,-1,-1,-1,-1,-1,-1,-1,-1,-1,-1,-1,-1,-1],"loss_changes":[1.4315141E2,7.902702E1,1.2389893E1,6.2452904E1,6.1694794E0,1.4333606E1,7.4174576E0,5.4813526E1,5.4572227E1,1.7945137E0,3.8686905E0,1.11988735E1,5.6330395E-1,3.8067474E0,4.869659E0,4.4305042E1,2.3932867E1,1.1669113E1,1.5624954E1,2.3082352E-1,2.1420307E0,4.1940823E0,3.7212753E-1,5.032932E0,1.3452692E0,9.433782E-1,2.3215485E-1,6.662689E0,5.1731453E0,0E0,2.3348417E0,0E0,0E0,0E0,0E0,0E0,0E0,0E0,0E0,0E0,0E0,0E0,0E0,0E0,0E0,0E0,0E0,0E0,0E0,0E0,0E0,0E0,0E0,0E0,0E0,0E0,0E0,0E0,0E0,0E0,0E0],"parents":[2147483647,0,0,1,1,2,2,3,3,4,4,5,5,6,6,7,7,8,8,9,9,10,10,11,11,12,12,13,13,14,14,15,15,16,16,17,17,18,18,19,19,20,20,21,21,22,22,23,23,24,24,25,25,26,26,27,27,28,28,30,30],"right_children":[2,4,6,8,10,12,14,16,18,20,22,24,26,28,30,32,34,36,38,40,42,44,46,48,50,52,54,56,58,-1,60,-1,-1,-1,-1,-1,-1,-1,-1,-1,-1,-1,-1,-1,-1,-1,-1,-1,-1,-1,-1,-1,-1,-1,-1,-1,-1,-1,-1,-1,-1],"split_conditions":[2E0,1E0,1.4E1,1E0,4.44975E3,6E0,4.87E1,1.7E1,1E0,5.3323E4,7.2E1,8.015E1,2.5E1,9.34E1,8.135E1,1E0,7.49E1,4.4E1,5.754E1,3.483E1,4.9E1,1E0,3.18E0,1.8E1,1E1,7.884E1,2.35E2,8E1,1.3608E2,-3.654135E-2,7E0,-1.7789781E-2,2.9177127E-2,-3.2987304E-2,1.7270361E-3,7.109811E-2,3.344569E-2,4.509215E-2,-3.5901673E-2,-5.1304836E-2,-1.623399E-2,-4.1649725E-2,1.6778937E-2,-2.34555E-2,1.8079698E-2,-8.1552565E-3,-4.7110915E-2,-3.492016E-2,1.9447582E-2,1.498158E-2,7.8692675E-2,-3.475167E-2,1.3104004E-2,-1.3868093E-2,-5.2441318E-2,-5.162976E-2,4.2158917E-2,3.0488862E-2,-3.5858385E-2,7.573425E-2,-6.7126052E-3],"split_indices":[9,40,10,8,26,9,12,10,5,7,10,25,1,25,25,14,25,10,29,27,10,4,12,15,15,29,7,1,29,0,9,0,0,0,0,0,0,0,0,0,0,0,0,0,0,0,0,0,0,0,0,0,0,0,0,0,0,0,0,0,0],"split_type":[0,0,0,0,0,0,0,0,0,0,0,0,0,0,0,0,0,0,0,0,0,0,0,0,0,0,0,0,0,0,0,0,0,0,0,0,0,0,0,0,0,0,0,0,0,0,0,0,0,0,0,0,0,0,0,0,0,0,0,0,0],"sum_hessian":[9.52312E2,7.478717E2,2.0444029E2,6.6548224E2,8.238951E1,3.7128517E1,1.6731177E2,5.2519635E2,1.4028589E2,4.9321808E1,3.3067703E1,2.13918E1,1.5736716E1,1.6275322E2,4.5585485E0,3.227801E2,2.0241623E2,1.11051704E2,2.9234184E1,4.4860424E1,4.4613824E0,2.336077E1,9.706935E0,1.5119471E1,6.2723293E0,2.4244094E0,1.3312306E1,1.134238E2,4.9329422E1,1.7854564E0,2.773092E0,6.1377045E1,2.6140305E2,8.480181E1,1.1761441E2,7.953848E1,3.1513222E1,7.0800996E0,2.2154085E1,4.322103E1,1.6393939E0,2.1066298E0,2.3547528E0,1.4123812E1,9.236958E0,1.1599647E0,8.54697E0,7.6323757E0,7.4870944E0,1.6165401E0,4.655789E0,1.2793914E0,1.145018E0,1.3002112E0,1.2012095E1,1.1220277E2,1.2210351E0,2.391599E0,4.6937824E1,1.7433523E0,1.0297399E0],"tree_param":{"num_deleted":"0","num_feature":"43","num_nodes":"61","size_leaf_vector":"1"}},{"base_weights":[-9.298181E-3,1.552032E-1,-8.6901504E-1,3.2142213E-1,-4.770674E-1,-7.491131E-1,-5.504014E-2,1.8366943E-1,1.0264255E0,-3.3470088E-1,-5.5039115E-2,-8.9369833E-1,-4.067213E-1,3.7171558E-1,-2.374014E-1,1.1224284E0,1.2225634E-1,-6.4447945E-1,-3.47275E-2,-9.65448E-1,-2.6988223E-1,5.5611104E-2,-5.267902E-1,3.872894E-2,4.9922597E-3,-2.6575258E-2,-1.8251395E-3,5.9481848E-2,2.371551E-2,3.308879E-2,-7.81712E-3,-3.397524E-2,4.057225E-2,8.20287E-3,-3.531094E-2,-4.884472E-2,-8.6766435E-3,8.48842E-3,-3.4640264E-2,1.9948507E-2,-3.152774E-2],"categories":[],"categories_nodes":[],"categories_segments":[],"categories_sizes":[],"default_left":[0,0,0,0,0,0,0,0,0,0,0,0,0,0,0,0,0,0,0,0,0,0,0,0,0,0,0,0,0,0,0,0,0,0,0,0,0,0,0,0,0],"id":21,"left_children":[1,3,5,7,9,11,-1,13,15,17,-1,19,21,23,25,27,29,31,33,35,37,-1,39,-1,-1,-1,-1,-1,-1,-1,-1,-1,-1,-1,-1,-1,-1,-1,-1,-1,-1],"loss_changes":[1.3367612E2,8.3540955E1,3.394455E0,6.0885414E1,1.4333706E1,4.7445946E0,0E0,4.1840294E1,8.766571E0,1.26377E1,0E0,2.9492035E0,6.5078545E0,3.988917E1,9.63498E0,3.4696121E0,1.7520624E0,3.966322E0,9.495932E0,4.0995026E-1,1.751157E0,0E0,3.2074337E0,0E0,0E0,0E0,0E0,0E0,0E0,0E0,0E0,0E0,0E0,0E0,0E0,0E0,0E0,0E0,0E0,0E0,0E0],"parents":[2147483647,0,0,1,1,2,2,3,3,4,4,5,5,7,7,8,8,9,9,11,11,12,12,13,13,14,14,15,15,16,16,17,17,18,18,19,19,20,20,22,22],"right_children":[2,4,6,8,10,12,-1,14,16,18,-1,20,22,24,26,28,30,32,34,36,38,-1,40,-1,-1,-1,-1,-1,-1,-1,-1,-1,-1,-1,-1,-1,-1,-1,-1,-1,-1],"split_conditions":[1E0,1E0,1E0,6.5E1,1E0,7.22215E3,-5.504014E-2,1E0,3E0,1E0,-5.5039115E-2,5.1213E4,5.3151E3,7E0,4.57E1,5E1,3.148E3,8.11579E3,2E0,6.37655E3,5.2E1,5.5611104E-2,6.2E1,3.872894E-2,4.9922597E-3,-2.6575258E-2,-1.8251395E-3,5.9481848E-2,2.371551E-2,3.308879E-2,-7.81712E-3,-3.397524E-2,4.057225E-2,8.20287E-3,-3.531094E-2,-4.884472E-2,-8.6766435E-3,8.48842E-3,-3.4640264E-2,1.9948507E-2,-3.152774E-2],"split_indices":[40,39,5,1,5,30,0,41,9,20,0,7,26,10,25,10,7,30,9,26,1,0,10,0,0,0,0,0,0,0,0,0,0,0,0,0,0,0,0,0,0],"split_type":[0,0,0,0,0,0,0,0,0,0,0,0,0,0,0,0,0,0,0,0,0,0,0,0,0,0,0,0,0,0,0,0,0,0,0,0,0,0,0,0,0],"sum_hessian":[9.432575E2,7.924472E2,1.5081029E2,6.2787537E2,1.6457182E2,1.0218349E2,4.86268E1,5.263005E2,1.015749E2,1.352393E2,2.9332527E1,7.071274E1,3.147075E1,3.639024E2,1.6239807E2,9.1606865E1,9.968034E0,6.596729E1,6.9272E1,6.2927353E1,7.785385E0,1.700113E0,2.977064E1,1.4588214E2,2.1802028E2,6.524199E1,9.715608E1,8.224292E1,9.363942E0,2.9261112E0,7.0419226E0,6.4938354E1,1.0289448E0,5.403225E1,1.5239754E1,6.1800503E1,1.1268482E0,4.1106906E0,3.6746945E0,2.7138052E0,2.7056833E1],"tree_param":{"num_deleted":"0","num_feature":"43","num_nodes":"41","size_leaf_vector":"1"}},{"base_weights":[-9.163621E-3,1.8002589E-1,-7.239235E-1,-2.3328497E-1,4.0165222E-1,-4.6999997E-1,-9.639931E-1,1.2398622E-2,-5.6261474E-1,4.9325752E-1,-5.639755E-1,2.9421782E-1,-6.883053E-1,-1.0603182E0,-6.6049874E-1,-1.2436152E-1,8.591521E-1,-7.305979E-1,-1.0191459E-1,9.650751E-1,3.410717E-1,-8.7273353E-1,-2.5294244E-1,-1.6437224E-1,1.2519059E0,-7.455809E-1,8.440034E-1,-5.359372E-2,-1.0025804E-2,3.969676E-1,-8.027714E-1,-1.5257212E-2,2.0913599E-2,7.6824844E-2,7.1154423E-3,-4.3558884E-2,-1.8726496E-2,1.3898633E-2,-3.851117E-2,8.2350664E-2,4.3619197E-2,6.888254E-3,4.3983143E-2,1.3884383E-2,-4.79953E-2,2.0947836E-3,-4.3362524E-2,5.619449E-2,-1.8832758E-2,1.3341446E-2,7.415753E-2,-3.9115176E-2,3.467483E-2,-5.1596635E-3,6.640163E-2,-3.331713E-2,5.8693983E-2,-4.3105442E-2,1.0362109E-2],"categories":[],"categories_nodes":[],"categories_segments":[],"categories_sizes":[],"default_left":[0,0,0,0,0,0,0,0,0,0,0,0,0,0,0,0,0,0,0,0,0,0,0,0,0,0,0,0,0,0,0,0,0,0,0,0,0,0,0,0,0,0,0,0,0,0,0,0,0,0,0,0,0,0,0,0,0,0,0],"id":22,"left_children":[1,3,5,7,9,11,13,15,17,19,21,23,25,27,29,31,33,35,37,39,41,43,45,47,49,51,53,-1,-1,55,57,-1,-1,-1,-1,-1,-1,-1,-1,-1,-1,-1,-1,-1,-1,-1,-1,-1,-1,-1,-1,-1,-1,-1,-1,-1,-1,-1,-1],"loss_changes":[1.2656278E2,6.788684E1,1.1487785E1,2.096004E1,4.2925842E1,1.6409657E1,2.2153778E0,1.739567E1,8.490139E0,3.1328423E1,3.8358545E0,9.993166E0,7.2871094E0,5.208969E-1,4.3327475E0,1.2822573E1,9.922774E0,3.7250366E0,8.016525E0,5.325363E0,3.6551064E1,2.3514938E0,4.10274E0,4.7861524E0,1.2744389E0,4.4351196E0,1.6052706E0,0E0,0E0,3.948716E0,1.607893E0,0E0,0E0,0E0,0E0,0E0,0E0,0E0,0E0,0E0,0E0,0E0,0E0,0E0,0E0,0E0,0E0,0E0,0E0,0E0,0E0,0E0,0E0,0E0,0E0,0E0,0E0,0E0,0E0],"parents":[2147483647,0,0,1,1,2,2,3,3,4,4,5,5,6,6,7,7,8,8,9,9,10,10,11,11,12,12,13,13,14,14,15,15,16,16,17,17,18,18,19,19,20,20,21,21,22,22,23,23,24,24,25,25,26,26,29,29,30,30],"right_children":[2,4,6,8,10,12,14,16,18,20,22,24,26,28,30,32,34,36,38,40,42,44,46,48,50,52,54,-1,-1,56,58,-1,-1,-1,-1,-1,-1,-1,-1,-1,-1,-1,-1,-1,-1,-1,-1,-1,-1,-1,-1,-1,-1,-1,-1,-1,-1,-1,-1],"split_conditions":[2E0,1E0,6E0,2.9099E2,1E0,1.4E1,9.41E1,1E0,1E0,4E0,4.44975E3,8.015E1,4.87E1,4E1,9.52E1,1E0,5.754E1,3.3389E4,1E0,1.2E0,1E0,2.2E1,7.2E1,2E0,1E1,8E1,1E0,-5.359372E-2,-1.0025804E-2,1E0,4.87E1,-1.5257212E-2,2.0913599E-2,7.6824844E-2,7.1154423E-3,-4.3558884E-2,-1.8726496E-2,1.3898633E-2,-3.851117E-2,8.2350664E-2,4.3619197E-2,6.888254E-3,4.3983143E-2,1.3884383E-2,-4.79953E-2,2.0947836E-3,-4.3362524E-2,5.619449E-2,-1.8832758E-2,1.3341446E-2,7.415753E-2,-3.9115176E-2,3.467483E-2,-5.1596635E-3,6.640163E-2,-3.331713E-2,5.8693983E-2,-4.3105442E-2,1.0362109E-2],"split_indices":[9,24,9,29,40,10,25,8,8,10,26,25,12,27,25,37,29,7,5,12,8,1,10,10,15,1,20,0,0,0,12,0,0,0,0,0,0,0,0,0,0,0,0,0,0,0,0,0,0,0,0,0,0,0,0,0,0,0,0],"split_type":[0,0,0,0,0,0,0,0,0,0,0,0,0,0,0,0,0,0,0,0,0,0,0,0,0,0,0,0,0,0,0,0,0,0,0,0,0,0,0,0,0,0,0,0,0,0,0,0,0,0,0,0,0,0,0,0,0,0,0],"sum_hessian":[9.3397784E2,7.3909515E2,1.9488268E2,2.5796454E2,4.811306E2,9.614602E1,9.873666E1,1.4829628E2,1.0966827E2,4.3988922E2,4.1241383E1,2.1285278E1,7.486074E1,7.305595E1,2.5680717E1,1.2840979E2,1.9886484E1,7.993578E1,2.9732487E1,1.0598023E2,3.33909E2,1.9790113E1,2.1451271E1,1.49532585E1,6.33202E0,7.26583E1,2.2024424E0,7.184368E1,1.2122597E0,2.83309E0,2.2847628E1,9.664829E1,3.17615E1,9.637034E0,1.024945E1,5.6272205E1,2.3663578E1,1.9329226E1,1.0403261E1,1.0674929E1,9.5305305E1,2.4331761E2,9.0591385E1,1.2400173E0,1.8550095E1,1.5124192E1,6.3270793E0,1.5079285E0,1.3445331E1,1.6133224E0,4.7186975E0,7.1295364E1,1.3629405E0,1.0109392E0,1.1915032E0,1.2561696E0,1.5769205E0,2.1718143E1,1.129484E0],"tree_param":{"num_deleted":"0","num_feature":"43","num_nodes":"59","size_leaf_vector":"1"}},{"base_weights":[-8.77111E-3,1.4349523E-1,-8.4447944E-1,2.9810858E-1,-4.5734644E-1,-9.510609E-1,-5.757919E-1,1.6754444E-1,9.753549E-1,-3.184423E-1,-5.450372E-2,-9.909912E-1,-5.88396E-1,-3.9753783E-1,-5.1870186E-2,2.8511962E-1,-4.618371E-1,1.0650691E0,1.3404703E-1,-6.4025366E-1,-4.68688E-2,-9.994814E-1,-1.2934362E-2,1.3649262E-1,-7.422323E-1,-1.349821E-1,-8.7313E-1,2.3643164E-2,-7.950272E-3,4.0246854E-3,-3.3225175E-2,5.661986E-2,2.1619484E-2,2.0979209E-2,-1.7489482E-2,-3.427718E-2,2.63333E-2,-1.5074941E-2,1.5609826E-2,-5.0388634E-2,-1.853145E-2,-6.4269784E-3,1.68014E-2,2.4686444E-3,-4.4442993E-2,1.1752686E-2,-4.3476485E-2,-2.2538542E-3,-5.1166236E-2],"categories":[],"categories_nodes":[],"categories_segments":[],"categories_sizes":[],"default_left":[0,0,0,0,0,0,0,0,0,0,0,0,0,0,0,0,0,0,0,0,0,0,0,0,0,0,0,0,0,0,0,0,0,0,0,0,0,0,0,0,0,0,0,0,0,0,0,0,0],"id":23,"left_children":[1,3,5,7,9,11,13,15,17,19,-1,21,23,25,-1,27,29,31,33,35,37,39,-1,41,43,45,47,-1,-1,-1,-1,-1,-1,-1,-1,-1,-1,-1,-1,-1,-1,-1,-1,-1,-1,-1,-1,-1,-1],"loss_changes":[1.1812666E2,7.308755E1,3.5494537E0,5.5116623E1,1.3812801E1,8.7807465E-1,3.1396046E0,3.9006092E1,7.4681244E0,1.1639265E1,0E0,2.9747772E-1,1.4917822E0,3.9732723E0,0E0,3.7034985E1,9.184111E0,3.3856812E0,1.6472119E0,3.5864716E0,6.8134627E0,8.5617065E-2,0E0,2.0330198E-1,1.255835E0,6.2636547E0,1.3804922E0,0E0,0E0,0E0,0E0,0E0,0E0,0E0,0E0,0E0,0E0,0E0,0E0,0E0,0E0,0E0,0E0,0E0,0E0,0E0,0E0,0E0,0E0],"parents":[2147483647,0,0,1,1,2,2,3,3,4,4,5,5,6,6,7,7,8,8,9,9,11,11,12,12,13,13,15,15,16,16,17,17,18,18,19,19,20,20,21,21,23,23,24,24,25,25,26,26],"right_children":[2,4,6,8,10,12,14,16,18,20,-1,22,24,26,-1,28,30,32,34,36,38,40,-1,42,44,46,48,-1,-1,-1,-1,-1,-1,-1,-1,-1,-1,-1,-1,-1,-1,-1,-1,-1,-1,-1,-1,-1,-1],"split_conditions":[1E0,1E0,9.195E1,6.5E1,1E0,5.3323E4,1E0,1E0,3E0,1E0,-5.450372E-2,1.4E2,5.5062E4,6.4E1,-5.1870186E-2,1E0,5E0,5E1,7E0,1E0,5.03755E3,7.9E1,-1.2934362E-2,1E0,1E0,7.2E1,7E0,2.3643164E-2,-7.950272E-3,4.0246854E-3,-3.3225175E-2,5.661986E-2,2.1619484E-2,2.0979209E-2,-1.7489482E-2,-3.427718E-2,2.63333E-2,-1.5074941E-2,1.5609826E-2,-5.0388634E-2,-1.853145E-2,-6.4269784E-3,1.68014E-2,2.4686444E-3,-4.4442993E-2,1.1752686E-2,-4.3476485E-2,-2.2538542E-3,-5.1166236E-2],"split_indices":[40,39,25,1,5,7,5,5,9,21,0,28,7,1,0,41,10,10,9,22,26,1,0,19,11,10,15,0,0,0,0,0,0,0,0,0,0,0,0,0,0,0,0,0,0,0,0,0,0],"split_type":[0,0,0,0,0,0,0,0,0,0,0,0,0,0,0,0,0,0,0,0,0,0,0,0,0,0,0,0,0,0,0,0,0,0,0,0,0,0,0,0,0,0,0,0,0,0,0,0,0],"sum_hessian":[9.263498E2,7.8428174E2,1.420681E2,6.241694E2,1.6011237E2,9.990048E1,4.2167614E1,5.243324E2,9.983697E1,1.3252266E2,2.75897E1,8.843145E1,1.1469029E1,3.1763248E1,1.04043665E1,4.422604E2,8.2071976E1,8.997624E1,9.860728E0,6.0030125E1,7.249254E1,8.705728E1,1.3741735E0,2.0275934E0,9.441437E0,2.1292381E1,1.0470866E1,3.1080853E2,1.3145187E2,2.2490553E1,5.958142E1,8.060828E1,9.367962E0,6.2846355E0,3.5760925E0,5.818442E1,1.845705E0,4.2508263E1,2.9984276E1,8.5329666E1,1.7276156E0,1.0236882E0,1.003905E0,1.5791699E0,7.8622665E0,1.4611628E1,6.680754E0,1.8072526E0,8.663614E0],"tree_param":{"num_deleted":"0","num_feature":"43","num_nodes":"49","size_leaf_vector":"1"}},{"base_weights":[-8.86996E-3,1.6747679E-1,-6.9988316E-1,-5.072442E-1,2.889549E-1,-4.4536716E-1,-9.44787E-1,2.862042E-1,-7.452037E-1,4.681926E-1,-2.2882055E-1,2.829485E-1,-6.6154915E-1,-1.0452715E0,-6.3610166E-1,9.1239035E-1,-2.0065284E-1,-5.143083E-1,-8.6779994E-1,3.2854226E-1,9.4641614E-1,-4.3027395E-1,2.2697769E-1,-1.5367197E-1,1.178697E0,-7.1981215E-1,8.307124E-1,-5.2867677E-2,-9.39104E-3,3.9247766E-1,-7.8062904E-1,9.136429E-2,2.6480595E-2,-3.8886275E-2,1.4904739E-2,-3.1930387E-2,1.3437453E-2,-4.5282453E-2,-1.7633498E-2,4.067132E-2,5.8233137E-3,6.019592E-2,-2.1404145E-2,-2.9806042E-2,-1.8499339E-3,2.7245373E-2,-2.9899457E-2,-3.3589337E-2,1.8533865E-2,1.1779228E-2,7.008264E-2,-3.7841983E-2,3.2917384E-2,7.960569E-3,5.6380928E-2,-3.2718208E-2,5.6573052E-2,-4.2370126E-2,8.916011E-3],"categories":[],"categories_nodes":[],"categories_segments":[],"categories_sizes":[],"default_left":[0,0,0,0,0,0,0,0,0,0,0,0,0,0,0,0,0,0,0,0,0,0,0,0,0,0,0,0,0,0,0,0,0,0,0,0,0,0,0,0,0,0,0,0,0,0,0,0,0,0,0,0,0,0,0,0,0,0,0],"id":24,"left_children":[1,3,5,7,9,11,13,15,17,19,21,23,25,27,29,31,33,35,37,39,41,43,45,47,49,51,53,-1,-1,55,57,-1,-1,-1,-1,-1,-1,-1,-1,-1,-1,-1,-1,-1,-1,-1,-1,-1,-1,-1,-1,-1,-1,-1,-1,-1,-1,-1,-1],"loss_changes":[1.12027084E2,6.0181305E1,1.122966E1,2.1381598E1,5.777039E1,1.491618E1,2.2620316E0,8.289073E0,2.0029755E0,3.0535904E1,1.4830483E1,8.829257E0,6.8957806E0,5.22789E-1,4.1310625E0,3.1683397E0,4.773074E0,3.33142E0,7.541733E-1,3.682469E1,3.7276398E1,7.2579136E0,1.3396353E1,4.5280404E0,1.2177258E0,4.0830803E0,4.5569253E-1,0E0,0E0,3.7072558E0,1.6169996E0,0E0,0E0,0E0,0E0,0E0,0E0,0E0,0E0,0E0,0E0,0E0,0E0,0E0,0E0,0E0,0E0,0E0,0E0,0E0,0E0,0E0,0E0,0E0,0E0,0E0,0E0,0E0,0E0],"parents":[2147483647,0,0,1,1,2,2,3,3,4,4,5,5,6,6,7,7,8,8,9,9,10,10,11,11,12,12,13,13,14,14,15,15,16,16,17,17,18,18,19,19,20,20,21,21,22,22,23,23,24,24,25,25,26,26,29,29,30,30],"right_children":[2,4,6,8,10,12,14,16,18,20,22,24,26,28,30,32,34,36,38,40,42,44,46,48,50,52,54,-1,-1,56,58,-1,-1,-1,-1,-1,-1,-1,-1,-1,-1,-1,-1,-1,-1,-1,-1,-1,-1,-1,-1,-1,-1,-1,-1,-1,-1,-1,-1],"split_conditions":[2E0,1E0,6E0,2.44E1,1E0,1.4E1,9.41E1,1.4697E4,1.99E1,1E0,1E0,8.015E1,4.87E1,4E1,9.52E1,6.59E2,3.2564E4,1E0,1E0,2.1525E2,1E0,3.4191E4,1E0,1.8E1,1E1,8E1,1.3E1,-5.2867677E-2,-9.39104E-3,1E0,4E1,9.136429E-2,2.6480595E-2,-3.8886275E-2,1.4904739E-2,-3.1930387E-2,1.3437453E-2,-4.5282453E-2,-1.7633498E-2,4.067132E-2,5.8233137E-3,6.019592E-2,-2.1404145E-2,-2.9806042E-2,-1.8499339E-3,2.7245373E-2,-2.9899457E-2,-3.3589337E-2,1.8533865E-2,1.1779228E-2,7.008264E-2,-3.7841983E-2,3.2917384E-2,7.960569E-3,5.6380928E-2,-3.2718208E-2,5.6573052E-2,-4.2370126E-2,8.916011E-3],"split_indices":[9,14,9,26,16,10,25,7,25,8,4,25,12,27,25,7,7,35,32,26,5,7,5,15,15,1,15,0,0,0,28,0,0,0,0,0,0,0,0,0,0,0,0,0,0,0,0,0,0,0,0,0,0,0,0,0,0,0,0],"split_type":[0,0,0,0,0,0,0,0,0,0,0,0,0,0,0,0,0,0,0,0,0,0,0,0,0,0,0,0,0,0,0,0,0,0,0,0,0,0,0,0,0,0,0,0,0,0,0,0,0,0,0,0,0,0,0,0,0,0,0],"sum_hessian":[9.1736346E2,7.3145386E2,1.8590958E2,1.1111526E2,6.203386E2,9.254787E1,9.336172E1,2.558898E1,8.5526276E1,4.6088898E2,1.5944963E2,2.1112194E1,7.143567E1,6.863362E1,2.4728092E1,1.0810579E1,1.4778401E1,3.1463568E1,5.4062706E1,3.5802567E2,1.02863304E2,1.1061575E2,4.8833878E1,1.4750638E1,6.3615556E0,6.9249565E1,2.1861038E0,6.745007E1,1.1835482E0,2.8351514E0,2.189294E1,2.0756752E0,8.734904E0,6.591914E0,8.186487E0,2.731255E1,4.1510177E0,4.9656128E1,4.406578E0,1.0807978E2,2.4994589E2,8.673774E1,1.6125568E1,7.744209E1,3.3173653E1,3.5494366E1,1.3339514E1,7.2779956E0,7.4726424E0,1.6095852E0,4.7519703E0,6.787674E1,1.3728318E0,1.1412401E0,1.0448638E0,1.2205837E0,1.6145679E0,2.057648E1,1.3164591E0],"tree_param":{"num_deleted":"0","num_feature":"43","num_nodes":"59","size_leaf_vector":"1"}},{"base_weights":[-8.579944E-3,1.3404055E-1,-8.2397586E-1,2.7775902E-1,-4.3644083E-1,-6.981076E-1,-5.391826E-2,1.5416628E-1,9.2796695E-1,-3.0215985E-1,-5.387019E-2,-8.530747E-1,-3.4850717E-1,2.6122704E-1,-4.317807E-1,1.0118997E0,1.4408804E-1,-5.9732294E-1,-3.0339241E-2,-9.3155974E-1,-2.1264689E-1,5.476535E-2,-4.7260883E-1,2.180288E-2,-7.7231466E-3,3.9956807E-3,-3.142934E-2,5.3982835E-2,1.959105E-2,3.3226762E-2,-6.674991E-3,-4.00831E-2,-1.4167837E-2,6.079925E-3,-3.604954E-2,-4.719888E-2,-7.53238E-3,-4.070139E-2,6.762322E-3,-1.0829848E-2,-4.589768E-2],"categories":[],"categories_nodes":[],"categories_segments":[],"categories_sizes":[],"default_left":[0,0,0,0,0,0,0,0,0,0,0,0,0,0,0,0,0,0,0,0,0,0,0,0,0,0,0,0,0,0,0,0,0,0,0,0,0,0,0,0,0],"id":25,"left_children":[1,3,5,7,9,11,-1,13,15,17,-1,19,21,23,25,27,29,31,33,35,37,-1,39,-1,-1,-1,-1,-1,-1,-1,-1,-1,-1,-1,-1,-1,-1,-1,-1,-1,-1],"loss_changes":[1.060044E2,6.3735123E1,3.5922241E0,4.971013E1,1.314604E1,4.774582E0,0E0,3.2888905E1,6.36026E0,1.0476077E1,0E0,3.027565E0,5.9724846E0,3.221788E1,8.216685E0,3.3228455E0,1.6388943E0,3.7924194E0,7.343532E0,4.0929794E-1,1.8469703E0,0E0,3.0770488E0,0E0,0E0,0E0,0E0,0E0,0E0,0E0,0E0,0E0,0E0,0E0,0E0,0E0,0E0,0E0,0E0,0E0,0E0],"parents":[2147483647,0,0,1,1,2,2,3,3,4,4,5,5,7,7,8,8,9,9,11,11,12,12,13,13,14,14,15,15,16,16,17,17,18,18,19,19,20,20,22,22],"right_children":[2,4,6,8,10,12,-1,14,16,18,-1,20,22,24,26,28,30,32,34,36,38,-1,40,-1,-1,-1,-1,-1,-1,-1,-1,-1,-1,-1,-1,-1,-1,-1,-1,-1,-1],"split_conditions":[1E0,1E0,1E0,6.5E1,1E0,7.22215E3,-5.391826E-2,1E0,3E0,1E0,-5.387019E-2,5.1213E4,5.3151E3,1E0,5E0,5E1,3.148E3,1E0,3E0,6.37655E3,4.5E1,5.476535E-2,5E0,2.180288E-2,-7.7231466E-3,3.9956807E-3,-3.142934E-2,5.3982835E-2,1.959105E-2,3.3226762E-2,-6.674991E-3,-4.00831E-2,-1.4167837E-2,6.079925E-3,-3.604954E-2,-4.719888E-2,-7.53238E-3,-4.070139E-2,6.762322E-3,-1.0829848E-2,-4.589768E-2],"split_indices":[40,39,5,1,5,30,0,5,9,20,0,7,26,41,10,10,7,4,9,26,10,0,9,0,0,0,0,0,0,0,0,0,0,0,0,0,0,0,0,0,0],"split_type":[0,0,0,0,0,0,0,0,0,0,0,0,0,0,0,0,0,0,0,0,0,0,0,0,0,0,0,0,0,0,0,0,0,0,0,0,0,0,0,0,0],"sum_hessian":[9.0958545E2,7.748861E2,1.3469934E2,6.193656E2,1.5552051E2,9.261765E1,4.208168E1,5.21479E2,9.7886604E1,1.2979915E2,2.5721352E1,6.3174294E1,2.9443361E1,4.413858E2,8.009321E1,8.815648E1,9.7301235E0,6.165359E1,6.814556E1,5.587248E1,7.301815E0,1.7110388E0,2.7732323E1,3.1067383E2,1.3071196E2,2.2413143E1,5.768007E1,7.880425E1,9.352222E0,2.8996432E0,6.8304806E0,3.6406055E1,2.5247536E1,5.6532753E1,1.1612811E1,5.479237E1,1.0801063E0,2.1849515E0,5.1168633E0,1.8553165E1,9.179155E0],"tree_param":{"num_deleted":"0","num_feature":"43","num_nodes":"41","size_leaf_vector":"1"}},{"base_weights":[-8.62178E-3,1.2792924E-1,-8.10412E-1,2.0588395E-1,-8.4496975E-1,-6.830526E-1,-5.3599056E-2,-7.5599626E-2,4.5061374E-1,-9.9510115E-1,-4.099317E-1,-8.401442E-1,-3.3582887E-1,3.838823E-1,-2.446696E-1,7.556076E-1,1.7083274E-1,-6.607868E-1,-1.0681164E0,3.3112686E-2,-5.8201814E-1,-9.202539E-1,-2.0720746E-1,5.17479E-2,-4.585883E-1,1.2484018E-2,7.234733E-2,-1.492014E-2,6.3196175E-2,5.9254654E-2,3.1045068E-2,1.2645492E-2,-5.323547E-2,1.703393E-2,-4.9745385E-2,-5.46977E-2,-1.0172397E-2,-3.775714E-2,8.237962E-3,-4.667024E-2,-7.581322E-3,-4.0097456E-2,6.4540147E-3,-8.637376E-3,-4.301515E-2],"categories":[],"categories_nodes":[],"categories_segments":[],"categories_sizes":[],"default_left":[0,0,0,0,0,0,0,0,0,0,0,0,0,0,0,0,0,0,0,0,0,0,0,0,0,0,0,0,0,0,0,0,0,0,0,0,0,0,0,0,0,0,0,0,0],"id":26,"left_children":[1,3,5,7,9,11,-1,13,15,17,19,21,23,25,27,29,31,33,35,-1,37,39,41,-1,43,-1,-1,-1,-1,-1,-1,-1,-1,-1,-1,-1,-1,-1,-1,-1,-1,-1,-1,-1,-1],"loss_changes":[9.884927E1,5.8687805E1,3.6446533E0,4.9294983E1,3.3429413E0,4.687973E0,0E0,2.599628E1,3.252414E1,3.1929398E-1,3.4177682E0,2.9564972E0,5.5311203E0,1.2489489E1,2.0184814E1,9.839386E0,2.0639765E1,3.7352152E0,5.11219E-1,0E0,2.024125E0,4.1244888E-1,1.7563471E0,0E0,3.0977373E0,0E0,0E0,0E0,0E0,0E0,0E0,0E0,0E0,0E0,0E0,0E0,0E0,0E0,0E0,0E0,0E0,0E0,0E0,0E0,0E0],"parents":[2147483647,0,0,1,1,2,2,3,3,4,4,5,5,7,7,8,8,9,9,10,10,11,11,12,12,13,13,14,14,15,15,16,16,17,17,18,18,20,20,21,21,22,22,24,24],"right_children":[2,4,6,8,10,12,-1,14,16,18,20,22,24,26,28,30,32,34,36,-1,38,40,42,-1,44,-1,-1,-1,-1,-1,-1,-1,-1,-1,-1,-1,-1,-1,-1,-1,-1,-1,-1,-1,-1],"split_conditions":[1E0,6E0,1E0,1E0,9.43E1,7.22215E3,-5.3599056E-2,3E0,1.7E1,7E0,9.52E1,5.1213E4,5.3151E3,1E0,8.53E1,1.183E2,2E0,9.603E1,4.817E1,3.3112686E-2,4.219E1,8E1,4.5E1,5.17479E-2,7.2E1,1.2484018E-2,7.234733E-2,-1.492014E-2,6.3196175E-2,5.9254654E-2,3.1045068E-2,1.2645492E-2,-5.323547E-2,1.703393E-2,-4.9745385E-2,-5.46977E-2,-1.0172397E-2,-3.775714E-2,8.237962E-3,-4.667024E-2,-7.581322E-3,-4.0097456E-2,6.4540147E-3,-8.637376E-3,-4.301515E-2],"split_indices":[40,9,5,37,25,30,0,10,10,9,25,7,26,4,25,26,6,29,12,0,12,1,10,0,10,0,0,0,0,0,0,0,0,0,0,0,0,0,0,0,0,0,0,0,0],"split_type":[0,0,0,0,0,0,0,0,0,0,0,0,0,0,0,0,0,0,0,0,0,0,0,0,0,0,0,0,0,0,0,0,0,0,0,0,0,0,0,0,0,0,0,0,0],"sum_hessian":[9.0090765E2,7.705223E2,1.303854E2,7.140931E2,5.6429195E1,9.0117905E1,4.0267506E1,3.3242975E2,3.8166333E2,4.0994595E1,1.5434601E1,6.1069233E1,2.9048668E1,8.9076294E1,2.4335344E2,1.8179018E2,1.9987315E2,9.149923E0,3.184467E1,1.7407116E0,1.369389E1,5.3805256E1,7.2639766E0,1.7768447E0,2.7271824E1,8.018815E1,8.888141E0,2.3575839E2,7.5950613E0,4.1542408E1,1.4024777E2,1.8816843E2,1.1704728E1,2.284108E0,6.8658156E0,3.0663237E1,1.1814337E0,1.1107618E1,2.5862708E0,5.2689384E1,1.1158723E0,2.1235902E0,5.1403866E0,1.676949E1,1.0502335E1],"tree_param":{"num_deleted":"0","num_feature":"43","num_nodes":"45","size_leaf_vector":"1"}},{"base_weights":[-8.498517E-3,1.5014109E-1,-6.639356E-1,-2.2414331E-1,3.4724718E-1,-4.1483703E-1,-9.130998E-1,-6.4593763E-3,-5.277269E-1,4.8726496E-1,-1.6229802E-1,2.6172227E-1,-6.2593794E-1,-1.0211543E0,-5.923577E-1,-1.3750945E-1,8.0787694E-1,-6.9542384E-1,-7.220291E-2,5.6243086E-1,-3.0833974E-1,1.0000844E-1,-5.042908E-1,-1.4906532E-1,1.0911607E0,-6.8588716E-1,8.1609356E-1,-5.171292E-2,-7.78914E-3,3.90859E-1,-7.4093026E-1,-2.1379285E-2,6.747875E-3,7.066011E-2,7.111655E-3,-4.1890834E-2,-1.7244345E-2,1.1901199E-2,-3.4113605E-2,1.9841623E-2,5.859759E-2,-6.187484E-4,-4.3561455E-2,-7.87063E-3,3.617775E-2,-2.9953724E-2,4.7622874E-2,-3.27187E-2,1.7405972E-2,2.3449713E-2,7.657532E-2,-3.6191534E-2,3.1736873E-2,8.429139E-3,5.435268E-2,-3.1935096E-2,5.4275315E-2,-4.0563654E-2,1.0271864E-2],"categories":[],"categories_nodes":[],"categories_segments":[],"categories_sizes":[],"default_left":[0,0,0,0,0,0,0,0,0,0,0,0,0,0,0,0,0,0,0,0,0,0,0,0,0,0,0,0,0,0,0,0,0,0,0,0,0,0,0,0,0,0,0,0,0,0,0,0,0,0,0,0,0,0,0,0,0,0,0],"id":27,"left_children":[1,3,5,7,9,11,13,15,17,19,21,23,25,27,29,31,33,35,37,39,41,43,45,47,49,51,53,-1,-1,55,57,-1,-1,-1,-1,-1,-1,-1,-1,-1,-1,-1,-1,-1,-1,-1,-1,-1,-1,-1,-1,-1,-1,-1,-1,-1,-1,-1,-1],"loss_changes":[9.304962E1,5.323549E1,1.0444748E1,1.6462902E1,3.3781376E1,1.2880316E1,2.3877716E0,1.5705529E1,7.897497E0,2.2348549E1,9.252155E0,7.617583E0,6.451868E0,5.556488E-1,3.8160868E0,1.0073549E1,8.019427E0,3.501007E0,5.6720138E0,3.3767525E1,5.429289E0,9.565809E0,6.7412186E0,4.125043E0,1.3001118E0,3.7656708E0,3.7415433E-1,0E0,0E0,3.4279504E0,1.5857592E0,0E0,0E0,0E0,0E0,0E0,0E0,0E0,0E0,0E0,0E0,0E0,0E0,0E0,0E0,0E0,0E0,0E0,0E0,0E0,0E0,0E0,0E0,0E0,0E0,0E0,0E0,0E0,0E0],"parents":[2147483647,0,0,1,1,2,2,3,3,4,4,5,5,6,6,7,7,8,8,9,9,10,10,11,11,12,12,13,13,14,14,15,15,16,16,17,17,18,18,19,19,20,20,21,21,22,22,23,23,24,24,25,25,26,26,29,29,30,30],"right_children":[2,4,6,8,10,12,14,16,18,20,22,24,26,28,30,32,34,36,38,40,42,44,46,48,50,52,54,-1,-1,56,58,-1,-1,-1,-1,-1,-1,-1,-1,-1,-1,-1,-1,-1,-1,-1,-1,-1,-1,-1,-1,-1,-1,-1,-1,-1,-1,-1,-1],"split_conditions":[2E0,1E0,6E0,2.9099E2,1E0,1.4E1,9.41E1,1E0,1E0,1E0,4.4E1,8.015E1,4.87E1,4E1,9.52E1,4.495E1,5.754E1,3.3389E4,1E0,1E0,4.9664E2,9.38E1,4.87E1,1.8E1,2.254E1,8E1,1.3E1,-5.171292E-2,-7.78914E-3,1E0,4E1,-2.1379285E-2,6.747875E-3,7.066011E-2,7.111655E-3,-4.1890834E-2,-1.7244345E-2,1.1901199E-2,-3.4113605E-2,1.9841623E-2,5.859759E-2,-6.187484E-4,-4.3561455E-2,-7.87063E-3,3.617775E-2,-2.9953724E-2,4.7622874E-2,-3.27187E-2,1.7405972E-2,2.3449713E-2,7.657532E-2,-3.6191534E-2,3.1736873E-2,8.429139E-3,5.435268E-2,-3.1935096E-2,5.4275315E-2,-4.0563654E-2,1.0271864E-2],"split_indices":[9,24,9,29,16,10,25,8,8,5,10,25,12,27,25,25,29,7,5,8,29,25,12,15,12,1,15,0,0,0,28,0,0,0,0,0,0,0,0,0,0,0,0,0,0,0,0,0,0,0,0,0,0,0,0,0,0,0,0],"split_type":[0,0,0,0,0,0,0,0,0,0,0,0,0,0,0,0,0,0,0,0,0,0,0,0,0,0,0,0,0,0,0,0,0,0,0,0,0,0,0,0,0,0,0,0,0,0,0,0,0,0,0,0,0,0,0,0,0,0,0],"sum_hessian":[8.9293616E2,7.1954987E2,1.7338629E2,2.4816763E2,4.7138223E2,8.803719E1,8.53491E1,1.4512637E2,1.0304127E2,3.6980685E2,1.0157538E2,2.0879734E1,6.715746E1,6.220814E1,2.3140955E1,1.25724785E2,1.9401587E1,7.492988E1,2.8111383E1,3.3815247E2,3.1654379E1,5.788528E1,4.3690098E1,1.4512538E1,6.367197E0,6.498041E1,2.1770544E0,6.108794E1,1.1202022E0,2.8236928E0,2.031726E1,6.0618866E1,6.510592E1,9.573001E0,9.828587E0,5.2296314E1,2.2633568E1,1.9039454E1,9.07193E0,2.6720706E2,7.094542E1,2.1415949E1,1.023843E1,4.1500168E1,1.6385115E1,4.157385E1,2.1162522E0,7.040668E0,7.47187E0,3.4946496E0,2.8725471E0,6.3604847E1,1.37556E0,1.1208166E0,1.0562377E0,1.1700535E0,1.6536393E0,1.904445E1,1.2728101E0],"tree_param":{"num_deleted":"0","num_feature":"43","num_nodes":"59","size_leaf_vector":"1"}},{"base_weights":[-8.16845E-3,1.19541086E-1,-7.891749E-1,2.504922E-1,-4.1219556E-1,-9.085446E-1,-5.0661516E-1,1.4255309E-1,9.2788935E-1,-2.842277E-1,-5.3127456E-2,-9.542696E-1,-5.208509E-1,-2.8802162E-1,-8.897464E-1,-3.4580454E-2,4.3844205E-1,1.0178621E0,2.567806E-1,-4.5131588E-1,1.7008877E-1,-9.642435E-1,-9.675744E-3,9.41339E-3,-6.8607134E-1,-5.2382416E-1,2.259719E-1,-1.646247E-2,-9.42914E-1,2.1517808E-2,-9.090362E-3,3.3053305E-2,-1.30238E-2,5.4487195E-2,1.914544E-2,4.5468442E-2,-7.2982074E-3,-3.2452524E-2,-6.403995E-3,1.9184275E-2,-3.0436177E-2,-4.8694998E-2,-1.5867343E-2,4.7710314E-3,-4.2248033E-2,3.204411E-2,-3.2326624E-2,3.0135477E-2,-3.7624087E-2,-1.3680391E-2,-5.0374903E-2],"categories":[],"categories_nodes":[],"categories_segments":[],"categories_sizes":[],"default_left":[0,0,0,0,0,0,0,0,0,0,0,0,0,0,0,0,0,0,0,0,0,0,0,0,0,0,0,0,0,0,0,0,0,0,0,0,0,0,0,0,0,0,0,0,0,0,0,0,0,0,0],"id":28,"left_children":[1,3,5,7,9,11,13,15,17,19,-1,21,23,25,27,29,31,33,35,37,39,41,-1,-1,43,45,47,-1,49,-1,-1,-1,-1,-1,-1,-1,-1,-1,-1,-1,-1,-1,-1,-1,-1,-1,-1,-1,-1,-1,-1],"loss_changes":[8.856469E1,5.3246292E1,3.748703E0,4.4689735E1,1.2280828E1,1.0357819E0,3.0369072E0,2.7790283E1,4.8150787E0,9.77049E0,0E0,3.9115143E-1,1.455874E0,3.3320727E0,1.0096836E-1,2.28327E1,3.1061169E1,2.95092E0,3.096426E0,5.901594E0,6.0663357E0,1.5885925E-1,0E0,0E0,1.2477479E0,3.0552163E0,3.784916E0,0E0,2.4622726E-1,0E0,0E0,0E0,0E0,0E0,0E0,0E0,0E0,0E0,0E0,0E0,0E0,0E0,0E0,0E0,0E0,0E0,0E0,0E0,0E0,0E0,0E0],"parents":[2147483647,0,0,1,1,2,2,3,3,4,4,5,5,6,6,7,7,8,8,9,9,11,11,12,12,13,13,14,14,15,15,16,16,17,17,18,18,19,19,20,20,21,21,24,24,25,25,26,26,28,28],"right_children":[2,4,6,8,10,12,14,16,18,20,-1,22,24,26,28,30,32,34,36,38,40,42,-1,-1,44,46,48,-1,50,-1,-1,-1,